{"learner":{"attributes":{"scikit_learn":"{\"_estimator_type\": \"classifier\"}"},"feature_names":["Time","V1","V2","V3","V4","V5","V6","V7","V8","V9","V10","V11","V12","V13","V14","V15","V16","V17","V18","V19","V20","V21","V22","V23","V24","V25","V26","V27","V28","Amount"],"feature_types":["float","float","float","float","float","float","float","float","float","float","float","float","float","float","float","float","float","float","float","float","float","float","float","float","float","float","float","float","float","float"],"gradient_booster":{"model":{"cats":{"enc":[],"feature_segments":[],"sorted_idx":[]},"gbtree_model_param":{"num_parallel_tree":"1","num_trees":"100"},"iteration_indptr":[0,1,2,3,4,5,6,7,8,9,10,11,12,13,14,15,16,17,18,19,20,21,22,23,24,25,26,27,28,29,30,31,32,33,34,35,36,37,38,39,40,41,42,43,44,45,46,47,48,49,50,51,52,53,54,55,56,57,58,59,60,61,62,63,64,65,66,67,68,69,70,71,72,73,74,75,76,77,78,79,80,81,82,83,84,85,86,87,88,89,90,91,92,93,94,95,96,97,98,99,100],"tree_info":[0,0,0,0,0,0,0,0,0,0,0,0,0,0,0,0,0,0,0,0,0,0,0,0,0,0,0,0,0,0,0,0,0,0,0,0,0,0,0,0,0,0,0,0,0,0,0,0,0,0,0,0,0,0,0,0,0,0,0,0,0,0,0,0,0,0,0,0,0,0,0,0,0,0,0,0,0,0,0,0,0,0,0,0,0,0,0,0,0,0,0,0,0,0,0,0,0,0,0,0],"trees":[{"base_weights":[1.2774848E-7,3.687294E1,-7.9042035E-1,5.5166674E0,-8.4292334E-1,2.997715E0,-1.7393705E-1,-9.0174085E-1,2.1511668E-1,-9.17142E-1,5.350545E-1,-3.111537E-1,1.5633324E0,1.9223163E-1,-9.3520695E-1,5.3046894E-1,-2.0128421E-1,-5.5114585E-1,9.891608E-1,5.9879094E-1,-2.4080428E-1,-1.1417018E-1,-2.8590122E-1,-2.3983525E-1,1.5890233E-1,6.4546335E-1,-1.6965513E-1],"categories":[],"categories_nodes":[],"categories_segments":[],"categories_sizes":[],"default_left":[0,0,0,0,0,0,0,0,0,0,0,0,0,0,0,0,0,0,0,0,0,0,0,0,0,0,0],"id":0,"left_children":[1,-1,3,5,7,-1,-1,9,11,13,15,17,-1,19,21,-1,-1,23,25,-1,-1,-1,-1,-1,-1,-1,-1],"loss_changes":[3.8405375E4,0E0,1.3471979E2,9.789269E1,2.4490143E1,0E0,0E0,8.67926E0,5.7803333E1,7.5245667E0,7.962253E0,6.872409E0,0E0,1.3628958E1,3.1987E0,0E0,0E0,5.1893477E0,7.5722013E0,0E0,0E0,0E0,0E0,0E0,0E0,0E0,0E0],"parents":[2147483647,0,0,2,2,3,3,4,4,7,7,8,8,9,9,10,10,11,11,13,13,14,14,17,17,18,18],"right_children":[2,-1,4,6,8,-1,-1,10,12,14,16,18,-1,20,22,-1,-1,24,26,-1,-1,-1,-1,-1,-1,-1,-1],"split_conditions":[-3.6280148E0,3.687294E1,-1.4082115E0,-1.6825792E-1,2.4508688E0,2.997715E0,-1.7393705E-1,2.4952333E0,1.4024969E0,-9.869141E-1,8.7223387E-1,1.3904194E0,1.5633324E0,-7.517599E-2,-1.6077651E0,5.3046894E-1,-2.0128421E-1,6.1066306E-1,3.4638223E-1,5.9879094E-1,-2.4080428E-1,-1.1417018E-1,-2.8590122E-1,-2.3983525E-1,1.5890233E-1,6.4546335E-1,-1.6965513E-1],"split_indices":[14,0,17,12,4,0,0,7,17,20,6,5,0,12,14,0,0,11,3,0,0,0,0,0,0,0,0],"split_type":[0,0,0,0,0,0,0,0,0,0,0,0,0,0,0,0,0,0,0,0,0,0,0,0,0,0,0],"sum_hessian":[3.9331863E2,1.5260097E0,3.9179263E2,2.3753273E0,3.894173E2,1.0012281E0,1.3740993E0,3.6904922E2,2.0368086E1,3.6549313E2,3.5560858E0,1.9275366E1,1.0927196E0,5.7018213E0,3.5979132E2,1.527736E0,2.0283499E0,1.6758486E1,2.5168803E0,1.6692889E0,4.032532E0,1.1881815E1,3.479095E2,1.3839389E1,2.9190977E0,1.2204624E0,1.2964177E0],"tree_param":{"num_deleted":"0","num_feature":"30","num_nodes":"27","size_leaf_vector":"1"}},{"base_weights":[-2.5010118E0,-1.3773744E2,-7.7134097E-1,-1.28101635E1,-5.19659E1,9.901155E-1,-8.012361E-1,4.1504595E-1,-8.539014E-1,-7.401934E-2,9.193894E-1,1.7914802E-1,-8.85927E-1,-8.020514E-1,1.5461043E0,6.03929E-1,-5.154691E-1,-8.9869094E-1,2.6350448E-1,-1.5334117E-3,-2.6866782E-1,9.631475E-1,-9.6445106E-2,1.8001059E-1,-2.5665003E-1,-4.3421827E-2,-2.7502093E-1],"categories":[],"categories_nodes":[],"categories_segments":[],"categories_sizes":[],"default_left":[0,0,0,0,0,0,0,0,0,0,0,0,0,0,0,0,0,0,0,0,0,0,0,0,0,0,0],"id":1,"left_children":[1,3,5,-1,-1,-1,7,9,11,13,-1,15,17,19,21,-1,23,25,-1,-1,-1,-1,-1,-1,-1,-1,-1],"loss_changes":[7.627129E4,6.4891406E3,4.2010284E1,0E0,0E0,0E0,2.0970703E1,1.8408052E1,1.0375641E1,1.6362228E1,0E0,1.3926428E1,7.5383606E0,7.0367956E-1,1.4449749E1,0E0,3.598742E0,3.9223022E0,0E0,0E0,0E0,0E0,0E0,0E0,0E0,0E0,0E0],"parents":[2147483647,0,0,1,1,2,2,6,6,7,7,8,8,9,9,11,11,12,12,13,13,14,14,16,16,17,17],"right_children":[2,4,6,-1,-1,-1,8,10,12,14,-1,16,18,20,22,-1,24,26,-1,-1,-1,-1,-1,-1,-1,-1,-1],"split_conditions":[-3.0454953E0,1.3406754E0,-3.5230653E0,-1.28101635E1,-5.19659E1,9.901155E-1,-1.7860076E0,1.83E2,-9.869141E-1,1.0260091E0,9.193894E-1,-6.333113E-1,2.1793187E0,-3.6993012E-1,1.9942753E0,6.03929E-1,-8.114536E-1,7.7E-1,2.6350448E-1,-1.5334117E-3,-2.6866782E-1,9.631475E-1,-9.6445106E-2,1.8001059E-1,-2.5665003E-1,-4.3421827E-2,-2.7502093E-1],"split_indices":[14,2,12,0,0,0,14,29,20,1,0,16,17,7,1,0,12,29,0,0,0,0,0,0,0,0,0],"split_type":[0,0,0,0,0,0,0,0,0,0,0,0,0,0,0,0,0,0,0,0,0,0,0,0,0,0,0],"sum_hessian":[3.25519E2,3.1178002E0,3.2240118E2,1.4466021E0,1.6711982E0,1.5524896E0,3.208487E2,1.3030657E1,3.0781805E2,1.1820813E1,1.2098435E0,9.117607E0,2.9870044E2,8.504228E0,3.3165853E0,1.9832453E0,7.1343617E0,2.9704205E2,1.6583868E0,1.0038006E0,7.500427E0,1.3734839E0,1.9431014E0,1.4880435E0,5.6463184E0,7.1542363E0,2.8988782E2],"tree_param":{"num_deleted":"0","num_feature":"30","num_nodes":"27","size_leaf_vector":"1"}},{"base_weights":[-6.2335305E-2,7.623398E1,-1.0304248E0,3.7033047E1,2.2378935E-1,-1.7258768E1,-7.546292E-1,-1.0513421E1,3.6729267E0,-8.536524E-1,-5.4499254E-2,-9.012491E-1,-1.4554925E-1,1.245007E0,-4.873956E-1,-9.2281896E-1,-1.8670973E-1,1.1344608E0,-6.537325E-1,2.9268486E0,-1.2001354E-1,3.7492558E-1,-7.932238E-1,-1.03830114E-1,-2.807308E-1,3.5679317E-1,-2.4708977E-1,-1.9778961E-1,7.879112E-1,9.41282E-2,-2.687213E-1,-8.401488E-3,1.2176996E0,2.9708803E-1,-1.7304882E-1,-1.2355914E-1,4.5342678E-1,-2.671011E-1,6.535872E-2],"categories":[],"categories_nodes":[],"categories_segments":[],"categories_sizes":[],"default_left":[0,0,0,0,0,0,0,0,0,0,0,0,0,0,0,0,0,0,0,0,0,0,0,0,0,0,0,0,0,0,0,0,0,0,0,0,0,0,0],"id":2,"left_children":[1,3,5,-1,-1,7,9,-1,-1,11,13,15,17,19,21,23,25,27,29,31,33,35,37,-1,-1,-1,-1,-1,-1,-1,-1,-1,-1,-1,-1,-1,-1,-1,-1],"loss_changes":[1.9224092E4,1.1529672E4,1.1369952E3,0E0,0E0,2.6580825E3,1.7542206E1,0E0,0E0,7.357544E0,1.889203E1,3.0335999E0,1.0620621E1,1.9643642E1,6.91697E0,1.1822815E0,7.4201603E0,1.4260157E1,2.9749556E0,1.2840141E1,3.41122E0,7.105788E0,2.0448532E0,0E0,0E0,0E0,0E0,0E0,0E0,0E0,0E0,0E0,0E0,0E0,0E0,0E0,0E0,0E0,0E0],"parents":[2147483647,0,0,1,1,2,2,5,5,6,6,9,9,10,10,11,11,12,12,13,13,14,14,15,15,16,16,17,17,18,18,19,19,20,20,21,21,22,22],"right_children":[2,4,6,-1,-1,8,10,-1,-1,12,14,16,18,20,22,24,26,28,30,32,34,36,38,-1,-1,-1,-1,-1,-1,-1,-1,-1,-1,-1,-1,-1,-1,-1,-1],"split_conditions":[-2.6788285E0,-1.1580613E0,-2.6373317E0,3.7033047E1,2.2378935E-1,1.3172727E0,1.6205643E0,-1.0513421E1,3.6729267E0,1.1241223E0,-7.241427E-1,5.0875E2,-2.333862E-1,8.655026E-2,7.6E0,-1.7860076E0,-3.33678E-1,1.6917244E-2,1.2267467E0,-1.557989E-1,-2.6307788E-1,3.908674E-2,7.629742E-1,-1.03830114E-1,-2.807308E-1,3.5679317E-1,-2.4708977E-1,-1.9778961E-1,7.879112E-1,9.41282E-2,-2.687213E-1,-8.401488E-3,1.2176996E0,2.9708803E-1,-1.7304882E-1,-1.2355914E-1,4.5342678E-1,-2.671011E-1,6.535872E-2],"split_indices":[10,14,14,0,0,2,4,0,0,17,14,29,8,10,29,14,26,21,17,11,27,28,23,0,0,0,0,0,0,0,0,0,0,0,0,0,0,0,0],"split_type":[0,0,0,0,0,0,0,0,0,0,0,0,0,0,0,0,0,0,0,0,0,0,0,0,0,0,0,0,0,0,0,0,0,0,0,0,0,0,0],"sum_hessian":[2.5820807E2,2.2611012E0,2.5594698E2,1.0002693E0,1.2608318E0,3.2480388E0,2.5269893E2,1.909166E0,1.3388729E0,2.2119485E2,3.1504076E1,2.0700761E2,1.4187237E1,7.403527E0,2.410055E1,2.0065884E2,6.348777E0,3.6816144E0,1.0505623E1,2.8042417E0,4.599285E0,6.2505107E0,1.785004E1,5.015827E0,1.95643E2,1.7344222E0,4.6143546E0,1.9251016E0,1.7565128E0,2.0427146E0,8.462908E0,1.046969E0,1.7572727E0,1.0002718E0,3.5990133E0,4.070283E0,2.1802278E0,1.6394773E1,1.4552659E0],"tree_param":{"num_deleted":"0","num_feature":"30","num_nodes":"39","size_leaf_vector":"1"}},{"base_weights":[-1.3789356E0,-8.552513E0,-1.0748084E0,-1.8055504E1,-8.3496267E-1,-8.557444E0,2.2515166E-1,6.164418E-1,-9.495608E-1,2.0950904E0,-3.7208095E-1,-2.6367114E0,-7.2286123E-1,1.6589906E0,-8.1588733E-1,-4.998659E0,-9.965229E-1,-8.049357E-1,9.2919536E-2,9.766322E-1,-2.2266607E-1,7.859945E-2,-2.834084E-1,-3.5083005E-1,4.2174295E-1,-2.707886E-1,-1.4422233E-1,-2.3294944E-1,2.4467565E-1],"categories":[],"categories_nodes":[],"categories_segments":[],"categories_sizes":[],"default_left":[0,0,0,0,0,0,0,0,0,0,0,0,0,0,0,0,0,0,0,0,0,0,0,0,0,0,0,0,0],"id":3,"left_children":[1,-1,3,5,7,-1,-1,9,11,-1,13,15,17,19,21,-1,23,25,27,-1,-1,-1,-1,-1,-1,-1,-1,-1,-1],"loss_changes":[1.8945558E3,0E0,9.2893445E2,6.47469E2,3.8775513E1,0E0,0E0,1.12171005E2,7.963739E1,0E0,1.5792768E1,5.556566E2,1.2750839E1,1.4691602E1,2.1657734E0,0E0,1.1337175E1,5.0173645E0,1.2070083E1,0E0,0E0,0E0,0E0,0E0,0E0,0E0,0E0,0E0,0E0],"parents":[2147483647,0,0,2,2,3,3,4,4,7,7,8,8,10,10,11,11,12,12,13,13,14,14,16,16,17,17,18,18],"right_children":[2,-1,4,6,8,-1,-1,10,12,-1,14,16,18,20,22,-1,24,26,28,-1,-1,-1,-1,-1,-1,-1,-1,-1,-1],"split_conditions":[-2.6788285E0,-8.552513E0,-2.12533E0,1.2765285E0,-1.9403781E0,-8.557444E0,2.2515166E-1,-1.6092373E0,-2.6373317E0,2.0950904E0,-1.5230986E0,1.3636771E0,1.1241223E0,1.7423382E0,-2.314262E0,-4.998659E0,1.5637891E0,8.9266247E-1,3.335357E-2,9.766322E-1,-2.2266607E-1,7.859945E-2,-2.834084E-1,-3.5083005E-1,4.2174295E-1,-2.707886E-1,-1.4422233E-1,-2.3294944E-1,2.4467565E-1],"split_indices":[10,0,27,2,12,0,0,17,14,0,19,2,17,1,3,0,16,4,18,0,0,0,0,0,0,0,0,0,0],"split_type":[0,0,0,0,0,0,0,0,0,0,0,0,0,0,0,0,0,0,0,0,0,0,0,0,0,0,0,0,0],"sum_hessian":[2.323346E2,1.5475566E0,2.3078703E2,2.1798167E0,2.2860722E2,1.0683012E0,1.1115156E0,1.640873E1,2.1219849E2,1.3901149E0,1.5018615E1,2.3876106E1,1.8832239E2,2.2021985E0,1.2816416E1,1.5409044E0,2.2335201E1,1.711196E2,1.7202785E1,1.109077E0,1.0931214E0,1.2576997E0,1.1558716E1,2.1314291E1,1.0209101E0,1.301238E2,4.0995796E1,7.7747393E0,9.428046E0],"tree_param":{"num_deleted":"0","num_feature":"30","num_nodes":"29","size_leaf_vector":"1"}},{"base_weights":[-1.1076013E0,-1.9087091E1,-8.0997056E-1,-6.9937E0,-1.6672846E0,-2.2210798E0,-6.960824E-1,-3.0110795E0,1.2308669E0,-9.0623033E-1,-3.1788447E-1,-3.3969653E-1,-2.0227828E0,-9.4428957E-1,-2.4166095E-1,1.4927241E0,-4.2241472E-1,-6.495643E-1,-9.950684E-1,8.639688E-1,-2.473927E-1,8.888177E-1,-1.7410343E-3,-1.5997243E-1,-9.8248875E-1,-2.3613785E-1,1.9408551E-1,-3.0167967E-1,-1.3539839E-2,5.344331E-1,-1.5709841E-1,-1.831015E-1,2.6953384E-1,7.018897E-2,-3.1725112E-1],"categories":[],"categories_nodes":[],"categories_segments":[],"categories_sizes":[],"default_left":[0,0,0,0,0,0,0,0,0,0,0,0,0,0,0,0,0,0,0,0,0,0,0,0,0,0,0,0,0,0,0,0,0,0,0],"id":4,"left_children":[1,3,5,-1,-1,7,9,11,-1,13,15,-1,-1,17,19,21,23,25,27,29,-1,-1,-1,31,33,-1,-1,-1,-1,-1,-1,-1,-1,-1,-1],"loss_changes":[1.0769332E3,5.79375E1,3.0894272E1,0E0,0E0,8.538712E1,1.4672737E1,8.751259E1,0E0,2.8186722E0,1.3647422E1,0E0,0E0,1.0536652E0,5.784553E0,8.772283E0,9.514885E0,4.000452E0,9.0512085E-1,5.0133257E0,0E0,0E0,0E0,2.2475882E1,2.1455631E0,0E0,0E0,0E0,0E0,0E0,0E0,0E0,0E0,0E0,0E0],"parents":[2147483647,0,0,1,1,2,2,5,5,6,6,7,7,9,9,10,10,13,13,14,14,15,15,16,16,17,17,18,18,19,19,23,23,24,24],"right_children":[2,4,6,-1,-1,8,10,12,-1,14,16,-1,-1,18,20,22,24,26,28,30,-1,-1,-1,32,34,-1,-1,-1,-1,-1,-1,-1,-1,-1,-1],"split_conditions":[-2.2287238E0,-1.0077376E0,-3.6280148E0,-6.9937E0,-1.6672846E0,1.2205362E0,7.4178904E-1,-2.12533E0,1.2308669E0,3.2E2,-1.8846219E0,-3.3969653E-1,-2.0227828E0,-8.776505E-1,-3.33678E-1,-8.2593083E-1,1.3913918E0,1.849226E0,1.4912871E0,7.4294955E-1,-2.473927E-1,8.888177E-1,-1.7410343E-3,5.5452347E-1,-1.0751336E0,-2.3613785E-1,1.9408551E-1,-3.0167967E-1,-1.3539839E-2,5.344331E-1,-1.5709841E-1,-1.831015E-1,2.6953384E-1,7.018897E-2,-3.1725112E-1],"split_indices":[10,3,14,0,0,2,4,27,0,29,8,0,0,10,26,14,2,1,22,6,0,0,0,17,16,0,0,0,0,0,0,0,0,0,0],"split_type":[0,0,0,0,0,0,0,0,0,0,0,0,0,0,0,0,0,0,0,0,0,0,0,0,0,0,0,0,0,0,0,0,0,0,0],"sum_hessian":[2.03138E2,2.2799351E0,2.0085806E2,1.1863592E0,1.0935758E0,1.3618487E1,1.8723958E2,1.2571855E1,1.0466326E0,1.1946305E2,6.777653E1,9.228778E0,3.3430767E0,1.12593994E2,6.8690515E0,2.9744594E0,6.480207E1,1.8574991E1,9.4019005E1,2.2050912E0,4.6639605E0,1.0082808E0,1.9661787E0,4.5000935E1,1.9801134E1,1.7148417E1,1.4265745E0,9.293023E1,1.0887783E0,1.1565796E0,1.0485115E0,3.1865326E1,1.3135611E1,1.0270742E0,1.8774061E1],"tree_param":{"num_deleted":"0","num_feature":"30","num_nodes":"35","size_leaf_vector":"1"}},{"base_weights":[-1.683507E-1,1.4063141E0,-8.9528704E-1,-1.5572315E0,1.6479189E0,-4.9767747E0,-6.8992656E-1,-3.1904465E-1,-1.2181973E0,1.2935961E0,2.6229737E0,-8.3418167E-1,1.2691875E-1,1.8088742E-1,-2.2635782E-1,3.32854E-1,1.7041953E0,2.0297275E0,1.6708522E0,-8.910991E-1,4.9600217E-1,2.2763548E0,-3.7952796E-1,-1.3942069E0,1.1811323E0,1.880717E0,-4.539364E-1,6.655897E-1,2.1804786E0,-1.7827051E0,-7.8123134E-1,9.878768E-1,-6.999033E-1,-2.8752887E-1,1.5345784E0,9.334104E-1,-6.511015E-1,-5.9986472E-2,-4.837028E-1,4.5111707E-1,-2.1516503E-1,5.8093244E-1,6.075564E-2,-2.9873618E-1,1.4343907E-1,2.9453957E-1,1.3828428E-2,7.115443E-1,3.1955266E-1,1.6106942E-1,-6.191454E-1,-2.5719845E-1,6.2468196E-3,-1.916404E-3,-2.581482E-1,1.0071989E-1,-1.9877188E-1,6.408789E-1,-1.842534E-1,1.24044284E-1,-2.6340768E-1],"categories":[],"categories_nodes":[],"categories_segments":[],"categories_sizes":[],"default_left":[0,0,0,0,0,0,0,0,0,0,0,0,0,0,0,0,0,0,0,0,0,0,0,0,0,0,0,0,0,0,0,0,0,0,0,0,0,0,0,0,0,0,0,0,0,0,0,0,0,0,0,0,0,0,0,0,0,0,0,0,0],"id":5,"left_children":[1,3,5,7,9,-1,11,13,-1,15,17,19,21,-1,-1,23,25,27,-1,29,31,33,35,37,39,41,43,45,47,49,51,-1,53,55,-1,57,59,-1,-1,-1,-1,-1,-1,-1,-1,-1,-1,-1,-1,-1,-1,-1,-1,-1,-1,-1,-1,-1,-1,-1,-1],"loss_changes":[2.785169E2,5.7619766E1,5.246045E2,1.8263966E1,2.1336533E1,0E0,1.9574356E1,2.585874E0,0E0,2.0921791E1,2.0343727E1,1.10833435E1,2.8803663E1,0E0,0E0,2.7362568E1,1.5300102E1,1.9715195E0,0E0,1.1845764E1,2.3744507E1,3.813453E1,8.319823E0,1.303278E0,8.61871E0,2.9041595E0,2.3310156E0,5.6115854E-1,5.782318E-1,1.0267014E1,7.4699097E0,0E0,5.8640933E-1,1.0624485E0,0E0,8.977774E0,4.8349614E0,0E0,0E0,0E0,0E0,0E0,0E0,0E0,0E0,0E0,0E0,0E0,0E0,0E0,0E0,0E0,0E0,0E0,0E0,0E0,0E0,0E0,0E0,0E0,0E0],"parents":[2147483647,0,0,1,1,2,2,3,3,4,4,6,6,7,7,9,9,10,10,11,11,12,12,15,15,16,16,17,17,19,19,20,20,21,21,22,22,23,23,24,24,25,25,26,26,27,27,28,28,29,29,30,30,32,32,33,33,35,35,36,36],"right_children":[2,4,6,8,10,-1,12,14,-1,16,18,20,22,-1,-1,24,26,28,-1,30,32,34,36,38,40,42,44,46,48,50,52,-1,54,56,-1,58,60,-1,-1,-1,-1,-1,-1,-1,-1,-1,-1,-1,-1,-1,-1,-1,-1,-1,-1,-1,-1,-1,-1,-1,-1],"split_conditions":[-2.458488E0,1.103052E0,-2.6788285E0,1.3166885E-1,9.9918E4,-4.9767747E0,2.3294663E0,-3.271797E-1,-1.2181973E0,-2.2680911E-1,3.609012E-1,8.267366E-1,2.26E0,1.8088742E-1,-2.2635782E-1,3.0839E4,-2.2287238E0,1.4705628E0,1.6708522E0,-3.6280148E0,-6.863876E-1,4.6681754E-2,-1.5195729E-1,-9.893614E-2,1.1854345E0,9.507163E-1,-9.573824E-1,-1.0816951E0,5.0040615E-1,-1.8897294E0,2.659E2,9.878768E-1,-4.405355E-1,-1.22317165E-1,1.5345784E0,1.203599E0,-1.3591654E0,-5.9986472E-2,-4.837028E-1,4.5111707E-1,-2.1516503E-1,5.8093244E-1,6.075564E-2,-2.9873618E-1,1.4343907E-1,2.9453957E-1,1.3828428E-2,7.115443E-1,3.1955266E-1,1.6106942E-1,-6.191454E-1,-2.5719845E-1,6.2468196E-3,-1.916404E-3,-2.581482E-1,1.0071989E-1,-1.9877188E-1,6.408789E-1,-1.842534E-1,1.24044284E-1,-2.6340768E-1],"split_indices":[12,2,10,27,0,0,4,14,0,26,23,21,29,0,0,0,10,4,0,14,13,28,16,25,13,28,3,18,18,10,29,0,25,21,0,3,15,0,0,0,0,0,0,0,0,0,0,0,0,0,0,0,0,0,0,0,0,0,0,0,0],"split_type":[0,0,0,0,0,0,0,0,0,0,0,0,0,0,0,0,0,0,0,0,0,0,0,0,0,0,0,0,0,0,0,0,0,0,0,0,0,0,0,0,0,0,0,0,0,0,0,0,0,0,0,0,0,0,0,0,0,0,0,0,0],"sum_hessian":[2.4121404E2,7.5889725E1,1.6532431E2,5.3101077E0,7.057961E1,1.1049023E0,1.642194E2,4.307215E0,1.0028925E0,5.3474384E1,1.710523E1,1.3955307E2,2.4666332E1,1.2583833E0,3.0488317E0,1.6553125E1,3.6921257E1,1.5644306E1,1.4609251E0,1.341433E2,5.4097834E0,4.037179E0,2.0629154E1,5.2403693E0,1.1312756E1,3.424849E1,2.67277E0,2.0956917E0,1.35486145E1,1.3045955E1,1.21097336E2,1.0951072E0,4.314676E0,2.5935767E0,1.4436023E0,3.1179929E0,1.751116E1,1.105364E0,4.1350055E0,9.847264E0,1.4654919E0,3.2998882E1,1.2496055E0,1.6469572E0,1.0258129E0,1.000281E0,1.0954106E0,1.0603008E1,2.9456058E0,1.311793E0,1.1734161E1,1.1054062E2,1.0556722E1,1.0067549E0,3.3079212E0,1.013734E0,1.5798427E0,1.5403694E0,1.5776235E0,2.9323478E0,1.4578813E1],"tree_param":{"num_deleted":"0","num_feature":"30","num_nodes":"61","size_leaf_vector":"1"}},{"base_weights":[-1.8340443E-1,1.1106968E0,-8.539406E-1,-1.5243834E0,1.3560613E0,-2.8059587E0,-6.6356343E-1,-3.856654E-1,-1.1971639E0,1.7478892E0,5.785949E-1,-7.920496E-1,-8.831223E-2,1.3775168E-1,-2.308137E-1,1.9797982E0,5.098338E-2,-1.2313129E0,1.1552733E0,-1.4352715E0,-6.4074E-1,-6.565236E-1,9.491693E-1,1.5324596E0,1.7296959E0,-2.4983425E-1,4.4028038E-1,-4.3122503E-1,-5.601911E-2,1.2929047E0,-9.7311206E-2,-5.8500355E-1,-1.6670164E0,-9.156803E-2,-7.842692E-1,5.393908E-1,-8.64379E-1,2.0762906E0,-5.246643E-1,7.960711E-1,4.3933424E-1,5.512811E-2,4.1430002E-1,-2.8962314E-1,1.9387843E-1,-3.6547625E-1,-7.9733366E-1,2.509606E-1,-1.3095419E-1,-2.6056322E-1,5.1567007E-2,-1.6803671E-1,4.4800788E-1,-2.9754004E-1,1.4407264E-1,-3.8264513E-2,1.0617075E0,-3.014226E-1,1.7407666E-1],"categories":[],"categories_nodes":[],"categories_segments":[],"categories_sizes":[],"default_left":[0,0,0,0,0,0,0,0,0,0,0,0,0,0,0,0,0,0,0,0,0,0,0,0,0,0,0,0,0,0,0,0,0,0,0,0,0,0,0,0,0,0,0,0,0,0,0,0,0,0,0,0,0,0,0,0,0,0,0],"id":6,"left_children":[1,3,5,7,9,-1,11,13,-1,15,17,19,21,-1,-1,23,25,27,29,31,33,35,37,-1,39,-1,-1,-1,-1,41,-1,43,45,47,49,51,53,55,57,-1,-1,-1,-1,-1,-1,-1,-1,-1,-1,-1,-1,-1,-1,-1,-1,-1,-1,-1,-1],"loss_changes":[1.850961E2,4.9177834E1,2.2088992E2,1.721333E1,1.9455933E1,0E0,1.01559105E1,2.1930454E0,0E0,1.7284225E1,2.6481422E1,1.0074928E1,1.6177574E1,0E0,0E0,2.1553253E1,9.157204E0,1.0847931E0,4.232332E0,3.1049728E0,7.2791405E0,4.851002E0,1.7279222E1,0E0,5.2978134E0,0E0,0E0,0E0,0E0,1.4396133E0,0E0,3.4227855E0,3.7564926E0,6.914009E0,6.0964355E0,4.221917E0,3.1168604E0,1.8904339E1,3.2467427E0,0E0,0E0,0E0,0E0,0E0,0E0,0E0,0E0,0E0,0E0,0E0,0E0,0E0,0E0,0E0,0E0,0E0,0E0,0E0,0E0],"parents":[2147483647,0,0,1,1,2,2,3,3,4,4,6,6,7,7,9,9,10,10,11,11,12,12,15,15,16,16,17,17,18,18,19,19,20,20,21,21,22,22,24,24,29,29,31,31,32,32,33,33,34,34,35,35,36,36,37,37,38,38],"right_children":[2,4,6,8,10,-1,12,14,-1,16,18,20,22,-1,-1,24,26,28,30,32,34,36,38,-1,40,-1,-1,-1,-1,42,-1,44,46,48,50,52,54,56,58,-1,-1,-1,-1,-1,-1,-1,-1,-1,-1,-1,-1,-1,-1,-1,-1,-1,-1,-1,-1],"split_conditions":[-2.192602E0,1.103052E0,-2.0213819E0,8.607751E-2,8.4568244E-1,-2.8059587E0,2.4508688E0,-3.271797E-1,-1.1971639E0,-3.0454953E0,-2.6895058E-1,-2.6373317E0,1.1989512E-1,1.3775168E-1,-2.308137E-1,1.6833494E0,2.2410508E-2,1.9371799E0,9.5765656E-1,6.2809044E-1,-8.0741286E-1,-6.60701E-1,-6.6459423E-1,1.5324596E0,1.10880576E-1,-2.4983425E-1,4.4028038E-1,-4.3122503E-1,-5.601911E-2,-2.2680911E-1,-9.7311206E-2,1.4458047E-1,1.9782009E0,6.5466E4,1.279002E0,7.760304E-2,9.128415E-1,4.978048E-3,1.4799951E-1,7.960711E-1,4.3933424E-1,5.512811E-2,4.1430002E-1,-2.8962314E-1,1.9387843E-1,-3.6547625E-1,-7.9733366E-1,2.509606E-1,-1.3095419E-1,-2.6056322E-1,5.1567007E-2,-1.6803671E-1,4.4800788E-1,-2.9754004E-1,1.4407264E-1,-3.8264513E-2,1.0617075E0,-3.014226E-1,1.7407666E-1],"split_indices":[12,2,10,27,27,0,4,14,0,14,26,14,1,0,0,2,24,19,15,7,14,16,9,0,8,0,0,0,0,26,0,25,17,0,7,23,12,28,26,0,0,0,0,0,0,0,0,0,0,0,0,0,0,0,0,0,0,0,0],"split_type":[0,0,0,0,0,0,0,0,0,0,0,0,0,0,0,0,0,0,0,0,0,0,0,0,0,0,0,0,0,0,0,0,0,0,0,0,0,0,0,0,0,0,0,0,0,0,0,0,0,0,0,0,0,0,0,0,0,0,0],"sum_hessian":[2.112148E2,7.186415E1,1.3935065E2,5.677558E0,6.618659E1,1.998516E0,1.3735213E2,4.67522E0,1.0023379E0,4.3177696E1,2.3008898E1,1.11966736E2,2.5385395E1,1.3987913E0,3.2764287E0,3.7839603E1,5.3380923E0,5.2854156E0,1.7723482E1,1.9706812E1,9.2259926E1,1.6639442E1,8.745951E0,1.3632294E0,3.647637E1,3.5410962E0,1.7969964E0,4.1003237E0,1.1850922E0,1.6330666E1,1.3928175E0,4.9756346E0,1.4731177E1,1.9455856E1,7.280407E1,2.2276182E0,1.4411825E1,4.7242723E0,4.021679E0,6.128032E0,3.0348341E1,1.4287109E0,1.4901955E1,3.9661787E0,1.0094556E0,1.1673375E1,3.0578012E0,4.8856153E0,1.4570241E1,6.699117E1,5.8128967E0,1.2266601E0,1.000958E0,1.3404008E1,1.0078173E0,2.248841E0,2.4754312E0,2.8667622E0,1.1549169E0],"tree_param":{"num_deleted":"0","num_feature":"30","num_nodes":"59","size_leaf_vector":"1"}},{"base_weights":[-1.9091472E-1,-9.997258E-1,6.695103E-1,-7.905213E0,-6.59091E-1,1.2479264E0,-2.5920358E-1,-4.345593E0,-3.801796E-1,-7.601139E-1,5.860623E-1,-1.1322224E0,1.4906647E0,-4.1211638E-1,7.033042E-1,2.007778E-1,-3.7117112E-1,-1.3444015E0,-6.110234E-1,-2.4776697E-1,1.918756E0,-3.7245713E-2,-4.1609707E-1,9.8505497E-1,3.3819587E0,7.697708E-2,-1.2137743E0,-3.375588E-2,-1.4174674E0,1.6068305E-1,-8.177712E-1,1.0463985E0,-7.466044E-2,8.451605E-2,1.2337747E0,-2.0948367E-1,1.5142969E0,-6.327122E-1,-9.532263E-1,-3.4695607E-1,-6.4821255E-1,2.7891818E-1,-2.2387294E-1,-2.608096E-1,2.1885173E-1,3.5512203E-1,-3.3387494E-1,3.8230747E-1,4.5737598E-2,2.6047546E-1,-1.581966E-1,7.3926854E-1,-4.7496304E-2,-7.785397E-2,-2.9831126E-1],"categories":[],"categories_nodes":[],"categories_segments":[],"categories_sizes":[],"default_left":[0,0,0,0,0,0,0,0,0,0,0,0,0,0,0,0,0,0,0,0,0,0,0,0,0,0,0,0,0,0,0,0,0,0,0,0,0,0,0,0,0,0,0,0,0,0,0,0,0,0,0,0,0,0,0],"id":7,"left_children":[1,3,5,7,9,11,13,-1,15,17,19,21,23,25,-1,-1,-1,27,29,-1,31,-1,-1,33,-1,35,37,-1,39,41,43,-1,-1,45,47,49,51,-1,53,-1,-1,-1,-1,-1,-1,-1,-1,-1,-1,-1,-1,-1,-1,-1,-1],"loss_changes":[1.2727636E2,2.1631834E2,4.799839E1,2.0920432E2,1.1872288E1,3.3383804E1,1.4856028E1,0E0,3.571139E0,6.5359383E0,1.5474935E1,1.2776995E0,2.3726764E2,1.334752E1,0E0,0E0,0E0,1.3109627E0,1.1159803E1,0E0,1.4808745E1,0E0,0E0,1.0835728E1,0E0,9.348782E0,9.913616E-1,0E0,4.7543335E-1,1.1463657E1,4.9994125E0,0E0,0E0,1.6643883E1,1.482029E0,7.0239525E0,6.3750668E0,0E0,7.853603E-2,0E0,0E0,0E0,0E0,0E0,0E0,0E0,0E0,0E0,0E0,0E0,0E0,0E0,0E0,0E0,0E0],"parents":[2147483647,0,0,1,1,2,2,3,3,4,4,5,5,6,6,8,8,9,9,10,10,11,11,12,12,13,13,17,17,18,18,20,20,23,23,25,25,26,26,28,28,29,29,30,30,33,33,34,34,35,35,36,36,38,38],"right_children":[2,4,6,8,10,12,14,-1,16,18,20,22,24,26,-1,-1,-1,28,30,-1,32,-1,-1,34,-1,36,38,-1,40,42,44,-1,-1,46,48,50,52,-1,54,-1,-1,-1,-1,-1,-1,-1,-1,-1,-1,-1,-1,-1,-1,-1,-1],"split_conditions":[1.7294651E0,-2.6788285E0,-3.0454953E0,2.6998997E0,6.7719793E-1,1.0426298E0,1.3292091E0,-4.345593E0,7.9576355E-1,-2.3800888E0,-2.1636945E-1,-2.6480278E-1,-2.6788285E0,1.3913918E0,7.033042E-1,2.007778E-1,-3.7117112E-1,-1.4255823E0,-8.0741286E-1,-2.4776697E-1,-6.863876E-1,-3.7245713E-2,-4.1609707E-1,-2.729288E-1,3.3819587E0,1.1028081E0,-2.459668E0,-3.375588E-2,7.9209715E-1,-3.679644E-1,2.4952333E0,1.0463985E0,-7.466044E-2,-3.33678E-1,9.507163E-1,-2.2021064E-1,1.74E1,-6.327122E-1,-7.1692E-1,-3.4695607E-1,-6.4821255E-1,2.7891818E-1,-2.2387294E-1,-2.608096E-1,2.1885173E-1,3.5512203E-1,-3.3387494E-1,3.8230747E-1,4.5737598E-2,2.6047546E-1,-1.581966E-1,7.3926854E-1,-4.7496304E-2,-7.785397E-2,-2.9831126E-1],"split_indices":[4,10,14,11,21,2,22,0,19,14,4,26,10,2,0,0,0,19,14,0,13,0,0,26,0,18,1,0,25,10,7,0,0,26,28,8,29,0,16,0,0,0,0,0,0,0,0,0,0,0,0,0,0,0,0],"split_type":[0,0,0,0,0,0,0,0,0,0,0,0,0,0,0,0,0,0,0,0,0,0,0,0,0,0,0,0,0,0,0,0,0,0,0,0,0,0,0,0,0,0,0,0,0,0,0,0,0,0,0,0,0,0,0],"sum_hessian":[1.8092722E2,9.317735E1,8.774986E1,3.3362496E0,8.98411E1,5.386085E1,3.388901E1,1.2864196E0,2.04983E0,8.345934E1,6.3817587E0,4.645496E0,4.9215355E1,3.280406E1,1.0849514E0,1.0199968E0,1.0298333E0,1.5336812E1,6.812253E1,3.2833867E0,3.0983722E0,1.2372475E0,3.4082482E0,4.7843273E1,1.3720828E0,2.0935337E1,1.1868723E1,1.000946E0,1.4335866E1,1.4441397E1,5.3681133E1,1.4439211E0,1.6544511E0,1.0644079E1,3.7199192E1,1.816856E1,2.766777E0,1.0761933E0,1.079253E1,1.2502403E1,1.833463E0,7.80114E0,6.6402564E0,5.237289E1,1.308245E0,5.55558E0,5.088499E0,3.5681484E1,1.5177106E0,3.7434447E0,1.4425117E1,1.4627562E0,1.3040209E0,1.0134089E0,9.779121E0],"tree_param":{"num_deleted":"0","num_feature":"30","num_nodes":"55","size_leaf_vector":"1"}},{"base_weights":[-1.7834611E-1,9.906442E-1,-7.7710605E-1,-1.5383607E0,1.323205E0,-4.190979E0,-5.150726E-1,-1.8072611E-1,-1.2672492E0,9.0352833E-1,3.2901933E0,3.9822212E-1,-5.9531385E-1,-2.1784547E-1,2.4661614E-1,2.1310234E0,6.5557736E-1,2.0801656E0,1.205817E0,-2.3749936E-1,1.19233E0,-1.4042904E0,-4.8829028E-1,2.7634454E0,-2.638482E-2,-1.077095E-1,9.963277E-1,4.079399E-1,6.3229874E-2,2.290257E0,-1.9718237E-1,-9.2472744E-1,-2.1958039E0,-6.12467E-1,2.0368385E-1,1.1130258E0,2.3440914E-1,3.76663E-1,-2.159437E-1,3.429179E-1,-2.7382153E-1,2.1682963E-1,8.896355E-1,-2.0151679E-1,1.4617392E-1,2.067142E-1,-3.7379074E-1,-2.1574108E-1,-8.3895475E-1,-1.9416201E-1,2.558715E-1,4.63947E-1,-8.686684E-2],"categories":[],"categories_nodes":[],"categories_segments":[],"categories_sizes":[],"default_left":[0,0,0,0,0,0,0,0,0,0,0,0,0,0,0,0,0,0,0,0,0,0,0,0,0,0,0,0,0,0,0,0,0,0,0,0,0,0,0,0,0,0,0,0,0,0,0,0,0,0,0,0,0],"id":8,"left_children":[1,3,5,7,9,-1,11,13,-1,15,17,19,21,-1,-1,23,25,-1,27,-1,29,31,33,35,-1,37,39,-1,-1,41,43,45,47,49,51,-1,-1,-1,-1,-1,-1,-1,-1,-1,-1,-1,-1,-1,-1,-1,-1,-1,-1],"loss_changes":[1.1178101E2,4.7586258E1,3.5730814E2,2.3873522E1,3.698371E1,0E0,7.889765E0,3.6229985E0,0E0,1.1163872E1,5.3405373E1,9.479119E0,7.6599045E0,0E0,0E0,9.352303E0,9.413073E0,0E0,6.915312E-1,0E0,9.325087E0,2.0420856E0,7.5714626E0,6.637127E0,0E0,1.0871493E1,7.999752E0,0E0,0E0,1.3793354E0,1.4601732E0,5.217709E0,9.343777E-1,4.305197E0,9.678075E0,0E0,0E0,0E0,0E0,0E0,0E0,0E0,0E0,0E0,0E0,0E0,0E0,0E0,0E0,0E0,0E0,0E0,0E0],"parents":[2147483647,0,0,1,1,2,2,3,3,4,4,6,6,7,7,9,9,10,10,11,11,12,12,15,15,16,16,18,18,20,20,21,21,22,22,23,23,25,25,26,26,29,29,30,30,31,31,32,32,33,33,34,34],"right_children":[2,4,6,8,10,-1,12,14,-1,16,18,20,22,-1,-1,24,26,-1,28,-1,30,32,34,36,-1,38,40,-1,-1,42,44,46,48,50,52,-1,-1,-1,-1,-1,-1,-1,-1,-1,-1,-1,-1,-1,-1,-1,-1,-1,-1],"split_conditions":[-1.9403781E0,1.103052E0,-2.2287238E0,1.1613161E-1,1.14362E5,-4.190979E0,7.8E-1,3.134185E0,-1.2672492E0,-3.5038614E-1,3.5181952E-1,3.0577818E-2,-3.6280148E0,-2.1784547E-1,2.4661614E-1,-1.3925117E0,-2.2680911E-1,2.0801656E0,2.6681414E-1,-2.3749936E-1,2.838904E-1,7.063953E-1,2.659E2,3.7331954E-1,-2.638482E-2,-3.902532E-1,4.0304357E-1,4.079399E-1,6.3229874E-2,4.6607327E-1,1.1722147E0,-6.2614554E-1,-3.9359188E0,1.1035633E0,-4.7154903E-1,1.1130258E0,2.3440914E-1,3.76663E-1,-2.159437E-1,3.429179E-1,-2.7382153E-1,2.1682963E-1,8.896355E-1,-2.0151679E-1,1.4617392E-1,2.067142E-1,-3.7379074E-1,-2.1574108E-1,-8.3895475E-1,-1.9416201E-1,2.558715E-1,4.63947E-1,-8.686684E-2],"split_indices":[12,2,10,27,0,0,29,4,0,8,27,28,14,0,0,3,26,0,24,0,6,25,29,27,0,26,7,0,0,5,6,10,2,26,26,0,0,0,0,0,0,0,0,0,0,0,0,0,0,0,0,0,0],"split_type":[0,0,0,0,0,0,0,0,0,0,0,0,0,0,0,0,0,0,0,0,0,0,0,0,0,0,0,0,0,0,0,0,0,0,0,0,0,0,0,0,0,0,0,0,0,0,0,0,0,0,0,0,0],"sum_hessian":[1.5759995E2,5.315946E1,1.0444048E2,5.756622E0,4.740284E1,1.0151732E0,1.0342531E2,4.532698E0,1.2239238E0,4.0270145E1,7.132693E0,8.032922E0,9.539239E1,3.1145267E0,1.4181713E0,5.491186E0,3.4778957E1,1.7488807E0,5.3838124E0,3.2164655E0,4.816457E0,9.729219E0,8.566317E1,4.082325E0,1.4088613E0,1.0945267E1,2.383369E1,4.344885E0,1.0389272E0,2.328411E0,2.4880455E0,7.408719E0,2.3205001E0,7.2727005E1,1.2936165E1,2.17279E0,1.909535E0,3.0658722E0,7.879395E0,2.2505177E1,1.3285145E0,1.3243451E0,1.004066E0,1.4802779E0,1.0077677E0,1.0398792E0,6.3688397E0,1.3063581E0,1.0141419E0,7.158819E1,1.1388152E0,2.9015524E0,1.0034613E1],"tree_param":{"num_deleted":"0","num_feature":"30","num_nodes":"53","size_leaf_vector":"1"}},{"base_weights":[-8.657914E-2,9.893285E-1,-5.8136153E-1,-1.4267297E0,1.6925637E0,-4.766525E0,-3.6472905E-1,6.657587E-2,-1.6773434E0,1.094211E0,2.601727E0,-8.889019E-2,-6.9289227E0,-8.701198E-1,-1.5506786E-1,-8.5642815E-1,-3.1025335E-1,2.4981773E0,6.4137346E-1,-2.591533E0,-6.231315E-1,1.347692E-1,-9.408597E-1,6.711901E-2,-8.623547E-1,1.679046E0,8.303676E-1,6.1525114E-2,1.15967E0,-2.9339778E-1,-8.267442E-3,5.93821E-1,-3.2309365E-1,2.881112E-2,-9.70216E-1,3.6366872E-2,2.8414744E-1,-1.9128592E-1,2.840495E-1,3.9230263E-1,-6.893333E-2,3.197927E-1,-1.08644694E-1,-1.360325E-1,3.4815446E-1,-7.0020825E-2,-3.021803E-1],"categories":[],"categories_nodes":[],"categories_segments":[],"categories_sizes":[],"default_left":[0,0,0,0,0,0,0,0,0,0,0,0,0,0,0,0,0,0,0,0,0,0,0,0,0,0,0,0,0,0,0,0,0,0,0,0,0,0,0,0,0,0,0,0,0,0,0],"id":9,"left_children":[1,3,5,7,9,11,13,-1,15,17,-1,-1,19,21,23,-1,-1,25,27,-1,-1,-1,29,31,33,-1,35,37,39,-1,-1,41,43,-1,45,-1,-1,-1,-1,-1,-1,-1,-1,-1,-1,-1,-1],"loss_changes":[7.606012E1,7.8936905E1,8.68952E1,4.791662E0,1.381122E2,4.365336E1,9.828782E0,0E0,4.1673527E0,1.9820343E1,0E0,0E0,8.11879E0,2.9756622E0,1.0693411E1,0E0,0E0,3.603605E1,7.989958E0,0E0,0E0,0E0,8.644829E-1,1.0967035E1,1.7730217E0,0E0,4.0628862E-1,9.093314E0,3.2015934E0,0E0,0E0,1.0615773E1,6.475421E0,0E0,1.661148E-1,0E0,0E0,0E0,0E0,0E0,0E0,0E0,0E0,0E0,0E0,0E0,0E0],"parents":[2147483647,0,0,1,1,2,2,3,3,4,4,5,5,6,6,8,8,9,9,12,12,13,13,14,14,17,17,18,18,22,22,23,23,24,24,26,26,27,27,28,28,31,31,32,32,34,34],"right_children":[2,4,6,8,10,12,14,-1,16,18,-1,-1,20,22,24,-1,-1,26,28,-1,-1,-1,30,32,34,-1,36,38,40,-1,-1,42,44,-1,46,-1,-1,-1,-1,-1,-1,-1,-1,-1,-1,-1,-1],"split_conditions":[-3.0454953E0,1.3406754E0,-2.6788285E0,-5.9625435E-1,-3.5230653E0,-2.8162088E0,-2.9504853E-1,6.657587E-2,-3.4688917E-1,5.8229065E-1,2.601727E0,-8.889019E-2,1.3983E5,-1.602903E0,1.3913918E0,-8.5642815E-1,-3.1025335E-1,4.008452E-1,-1.0941798E-1,-2.591533E0,-6.231315E-1,1.347692E-1,1.6138346E0,-4.259361E-1,-9.869141E-1,1.679046E0,-5.651801E-1,9.041E1,3.0015662E-1,-2.9339778E-1,-8.267442E-3,4.705392E-2,3.085272E-1,2.881112E-2,-8.009282E-1,3.6366872E-2,2.8414744E-1,-1.9128592E-1,2.840495E-1,3.9230263E-1,-6.893333E-2,3.197927E-1,-1.08644694E-1,-1.360325E-1,3.4815446E-1,-7.0020825E-2,-3.021803E-1],"split_indices":[14,2,10,22,12,8,4,0,9,8,0,0,0,10,2,0,0,27,26,0,0,0,16,14,20,0,23,29,18,0,0,27,28,0,18,0,0,0,0,0,0,0,0,0,0,0,0],"split_type":[0,0,0,0,0,0,0,0,0,0,0,0,0,0,0,0,0,0,0,0,0,0,0,0,0,0,0,0,0,0,0,0,0,0,0,0,0,0,0,0,0,0,0,0,0,0,0],"sum_hessian":[1.4079836E2,4.4037968E1,9.676038E1,9.696284E0,3.4341686E1,3.7283764E0,9.3032005E1,1.2945632E0,8.401721E0,3.2695602E1,1.6460835E0,1.5862404E0,2.142136E0,2.6354368E1,6.6677635E1,1.7533416E0,6.6483793E0,6.87227E0,2.5823332E1,1.0069027E0,1.1352333E0,1.0688611E0,2.5285507E1,5.1427364E1,1.5250273E1,1.5803428E0,5.2919273E0,1.2715959E1,1.3107373E1,2.4229553E1,1.0559534E0,2.1663958E1,2.9763407E1,1.5537943E0,1.3696478E1,1.0364736E0,4.2554536E0,7.26132E0,5.454639E0,1.1898758E1,1.208615E0,1.4424573E1,7.239384E0,2.799791E1,1.7654967E0,1.0052537E0,1.2691225E1],"tree_param":{"num_deleted":"0","num_feature":"30","num_nodes":"47","size_leaf_vector":"1"}},{"base_weights":[-6.1211992E-2,9.868541E-1,-4.984967E-1,-1.262771E0,1.6787223E0,-3.5466642E0,-3.0810925E-1,-4.372737E-1,-1.8894497E0,1.0602113E0,2.736718E0,-4.706591E0,3.2537434E-2,-8.264204E-1,-1.3426003E-1,3.563808E-1,-3.2680064E-1,-9.428092E-1,-2.322424E-1,2.698316E0,5.722258E-1,-1.7455769E0,-5.7903486E-1,1.0464238E-1,-9.14514E-1,8.304269E-2,-7.423392E-1,1.7511237E0,7.1422815E-1,9.141182E-1,-3.1521654E-1,-2.885759E-1,-3.5829565E-3,5.4529303E-1,-3.3748865E-1,-8.402929E-1,6.0106676E-2,2.5429308E-1,3.1601015E-2,3.1846753E-1,-1.2817656E-1,-2.5619188E-1,1.5640047E-1,4.2360404E-1,4.4963982E-2,-1.5904494E-1,1.892397E-1,-2.7555257E-1,3.850179E-2],"categories":[],"categories_nodes":[],"categories_segments":[],"categories_sizes":[],"default_left":[0,0,0,0,0,0,0,0,0,0,0,0,0,0,0,0,0,0,0,0,0,0,0,0,0,0,0,0,0,0,0,0,0,0,0,0,0,0,0,0,0,0,0,0,0,0,0,0,0],"id":10,"left_children":[1,3,5,7,9,11,13,15,17,19,-1,21,-1,23,25,-1,-1,-1,-1,27,29,-1,-1,-1,31,33,35,-1,37,39,41,-1,-1,43,45,47,-1,-1,-1,-1,-1,-1,-1,-1,-1,-1,-1,-1,-1],"loss_changes":[5.8884266E1,6.10232E1,5.146506E1,4.0739565E0,1.2555977E2,2.2679619E1,7.6686068E0,7.004755E0,4.6724663E0,2.1038805E1,0E0,1.0940552E0,0E0,2.543951E0,8.762228E0,0E0,0E0,0E0,0E0,3.4535652E1,7.277407E0,0E0,0E0,0E0,8.557339E-1,9.788692E0,1.7784033E0,0E0,3.1261373E-1,3.793067E0,3.6677327E0,0E0,0E0,7.9858217E0,5.2761106E0,1.3291149E0,0E0,0E0,0E0,0E0,0E0,0E0,0E0,0E0,0E0,0E0,0E0,0E0,0E0],"parents":[2147483647,0,0,1,1,2,2,3,3,4,4,5,5,6,6,7,7,8,8,9,9,11,11,13,13,14,14,19,19,20,20,24,24,25,25,26,26,28,28,29,29,30,30,33,33,34,34,35,35],"right_children":[2,4,6,8,10,12,14,16,18,20,-1,22,-1,24,26,-1,-1,-1,-1,28,30,-1,-1,-1,32,34,36,-1,38,40,42,-1,-1,44,46,48,-1,-1,-1,-1,-1,-1,-1,-1,-1,-1,-1,-1,-1],"split_conditions":[-3.0454953E0,1.3406754E0,-2.6788285E0,-2.058499E-1,-3.5230653E0,1.1476411E0,-2.9504853E-1,-1.2665664E0,-3.037782E-1,5.8229065E-1,2.736718E0,2.2039539E-1,3.2537434E-2,-1.602903E0,2.7294818E-1,3.563808E-1,-3.2680064E-1,-9.428092E-1,-2.322424E-1,4.654966E-1,4.964585E-1,-1.7455769E0,-5.7903486E-1,1.0464238E-1,2.0870295E0,-1.0547868E-1,1.7068161E0,1.7511237E0,1.491873E-1,-1.6463068E0,-1.0941798E-1,-2.885759E-1,-3.5829565E-3,-4.4637313E-1,7.5798565E-1,1.6491354E0,6.0106676E-2,2.5429308E-1,3.1601015E-2,3.1846753E-1,-1.2817656E-1,-2.5619188E-1,1.5640047E-1,4.2360404E-1,4.4963982E-2,-1.5904494E-1,1.892397E-1,-2.7555257E-1,3.850179E-2],"split_indices":[14,2,10,26,12,22,4,10,9,8,0,22,0,10,8,0,0,0,0,27,28,0,0,0,1,26,1,0,22,7,26,0,0,2,22,20,0,0,0,0,0,0,0,0,0,0,0,0,0],"split_type":[0,0,0,0,0,0,0,0,0,0,0,0,0,0,0,0,0,0,0,0,0,0,0,0,0,0,0,0,0,0,0,0,0,0,0,0,0,0,0,0,0,0,0,0,0,0,0,0,0],"sum_hessian":[1.2640979E2,3.6844833E1,8.9564964E1,8.47218E0,2.8372652E1,4.228975E0,8.533598E1,4.3887844E0,4.0833964E0,2.7250757E1,1.121894E0,2.9918594E0,1.2371151E0,2.0490952E1,6.484504E1,1.0213469E0,3.3674374E0,1.0668344E0,3.016562E0,5.2150393E0,2.2035719E1,1.353927E0,1.6379324E0,1.2224967E0,1.9268454E1,4.8409046E1,1.6435987E1,1.2676743E0,3.947365E0,1.5885628E1,6.1500907E0,1.824445E1,1.0240046E0,2.2919325E1,2.5489723E1,1.498731E1,1.4486774E0,2.9162664E0,1.0310986E0,1.4500386E1,1.3852412E0,3.728217E0,2.4218738E0,6.3749204E0,1.6544405E1,2.1637064E1,3.85266E0,1.3915407E1,1.0719029E0],"tree_param":{"num_deleted":"0","num_feature":"30","num_nodes":"49","size_leaf_vector":"1"}},{"base_weights":[-3.8404796E-2,9.5602673E-1,-4.1600797E-1,-1.2325009E0,1.6057979E0,-2.667346E0,-2.5472093E-1,9.932057E-2,-1.5356109E0,4.8132906E0,5.3530455E-1,-3.5353186E0,1.385602E-1,-1.1449938E-1,-8.2748944E-1,-7.2645307E-1,-2.548393E-1,2.8454971E0,8.731375E-1,2.6782244E-1,6.3002187E-1,-1.4926875E0,-4.6773925E-1,-5.361684E-1,1.5487567E-1,-4.4323667E-4,-9.3620247E-1,3.2411805E-1,3.1952146E-2,4.2295006E-1,-3.562817E-1,-6.347108E-1,2.684557E-1,-5.334016E-1,5.178256E-1,-6.942701E-2,-2.9197624E-1,3.2576242E-1,-2.665756E-2,1.1843663E-1,-2.4244459E-1,-2.323101E-1,2.201523E-1,3.4594217E-1,1.3538425E-2],"categories":[],"categories_nodes":[],"categories_segments":[],"categories_sizes":[],"default_left":[0,0,0,0,0,0,0,0,0,0,0,0,0,0,0,0,0,0,0,0,0,0,0,0,0,0,0,0,0,0,0,0,0,0,0,0,0,0,0,0,0,0,0,0,0],"id":11,"left_children":[1,3,5,7,9,11,13,-1,15,17,19,21,-1,23,25,-1,-1,-1,27,29,-1,-1,-1,31,33,-1,35,-1,-1,37,-1,39,-1,41,43,-1,-1,-1,-1,-1,-1,-1,-1,-1,-1],"loss_changes":[4.422809E1,4.8092587E1,3.0293121E1,4.294842E0,8.476805E1,1.6833813E1,6.3867054E0,0E0,2.1186562E0,1.06585724E2,7.8913174E0,5.0420265E0,0E0,7.5786886E0,1.4094038E0,0E0,0E0,0E0,5.9780216E-1,4.6555653E0,0E0,0E0,0E0,4.227023E0,1.0529066E1,0E0,1.3726425E-1,0E0,0E0,5.986907E0,0E0,4.7580957E0,0E0,5.045804E0,8.170349E0,0E0,0E0,0E0,0E0,0E0,0E0,0E0,0E0,0E0,0E0],"parents":[2147483647,0,0,1,1,2,2,3,3,4,4,5,5,6,6,8,8,9,9,10,10,11,11,13,13,14,14,18,18,19,19,23,23,24,24,26,26,29,29,31,31,33,33,34,34],"right_children":[2,4,6,8,10,12,14,-1,16,18,20,22,-1,24,26,-1,-1,-1,28,30,-1,-1,-1,32,34,-1,36,-1,-1,38,-1,40,-1,42,44,-1,-1,-1,-1,-1,-1,-1,-1,-1,-1],"split_conditions":[-3.0454953E0,1.3406754E0,-2.6788285E0,-5.9625435E-1,5.963685E-1,-1.3364763E0,1.3913918E0,9.932057E-2,-3.4688917E-1,4.2044792E-1,1.28839E5,7.5170755E-1,1.385602E-1,-5.891156E-2,-9.869141E-1,-7.2645307E-1,-2.548393E-1,2.8454971E0,6.343883E-1,-3.3302575E-1,6.3002187E-1,-1.4926875E0,-4.6773925E-1,1.4912871E0,-1.6665657E-1,-4.4323667E-4,-5.290153E-1,3.2411805E-1,3.1952146E-2,2.9318175E-1,-3.562817E-1,-1.1864595E0,2.684557E-1,8.997905E-1,8.9492E4,-6.942701E-2,-2.9197624E-1,3.2576242E-1,-2.665756E-2,1.1843663E-1,-2.4244459E-1,-2.323101E-1,2.201523E-1,3.4594217E-1,1.3538425E-2],"split_indices":[14,2,10,22,8,14,2,0,9,27,0,17,0,17,20,0,0,0,25,5,0,0,0,22,18,0,26,0,0,28,0,15,0,10,0,0,0,0,0,0,0,0,0,0,0],"split_type":[0,0,0,0,0,0,0,0,0,0,0,0,0,0,0,0,0,0,0,0,0,0,0,0,0,0,0,0,0,0,0,0,0,0,0,0,0,0,0,0,0,0,0,0,0],"sum_hessian":[1.1572521E2,3.1427618E1,8.429759E1,6.9894085E0,2.443821E1,4.596674E0,7.970092E1,1.1199571E0,5.869451E0,5.24035E0,1.919786E1,3.4969273E0,1.0997468E0,6.499031E1,1.4710609E1,1.4579349E0,4.411516E0,1.7537394E0,3.4866107E0,1.7395435E1,1.8024249E0,1.1447841E0,2.3521433E0,2.4947723E1,4.0042587E1,1.8288008E0,1.2881808E1,2.422437E0,1.0641737E0,1.6360989E1,1.0344467E0,2.3861073E1,1.0866493E0,1.3663081E1,2.6379507E1,1.005307E0,1.1876502E1,6.639489E0,9.721499E0,3.2562478E0,2.0604826E1,1.1806935E1,1.8561456E0,1.0639849E1,1.5739659E1],"tree_param":{"num_deleted":"0","num_feature":"30","num_nodes":"45","size_leaf_vector":"1"}},{"base_weights":[-5.943248E-2,8.422963E-1,-3.3841366E-1,1.343314E-1,1.9693745E0,-1.8239416E0,-1.9972137E-1,4.11497E-1,-9.584226E-1,1.2588072E0,9.8172843E-1,-1.234451E0,-3.36249E-1,1.2367444E0,-3.1326303E-1,3.971839E-1,-4.9663287E-2,-3.673328E-1,-3.1710204E-2,-1.3876814E-1,1.8991258E0,9.779382E-1,-4.1789767E-1,-6.8197066E-1,-7.649992E-2,-9.2079103E-1,4.8570237E-1,2.9966453E-1,-4.0368584E-1,2.6569858E0,-4.305209E-2,-4.3517668E-2,4.8255876E-1,5.3148663E-1,-8.2653546E-1,6.780365E-1,-2.835589E-1,-3.078635E-1,-8.550344E-2,-7.195708E-2,2.302716E-1,2.0065975E-1,1.0787139E0,5.9665775E-1,-2.0159039E-1,-3.1830248E-1,-1.5404174E-1,5.4376787E-1,-1.22482285E-1,2.0148131E-1,-1.3641751E-1],"categories":[],"categories_nodes":[],"categories_segments":[],"categories_sizes":[],"default_left":[0,0,0,0,0,0,0,0,0,0,0,0,0,0,0,0,0,0,0,0,0,0,0,0,0,0,0,0,0,0,0,0,0,0,0,0,0,0,0,0,0,0,0,0,0,0,0,0,0,0,0],"id":12,"left_children":[1,3,5,7,9,11,13,15,17,-1,19,-1,21,-1,23,-1,25,-1,-1,27,29,31,-1,33,35,37,39,-1,-1,41,-1,-1,-1,43,45,47,49,-1,-1,-1,-1,-1,-1,-1,-1,-1,-1,-1,-1,-1,-1],"loss_changes":[2.8448149E1,2.1071188E1,1.7398224E1,5.6934967E0,1.8405785E1,2.3287083E1,4.0538628E1,6.2327228E0,7.416985E-1,0E0,8.899151E0,0E0,8.969485E0,0E0,6.8316884E0,0E0,5.437088E0,0E0,0E0,7.8159404E0,7.6371555E0,2.378318E0,0E0,5.8264627E0,7.870617E0,3.6242008E-3,1.6732512E0,0E0,0E0,4.070978E0,0E0,0E0,0E0,8.1375475E0,1.4981899E0,1.4146011E1,6.7255583E0,0E0,0E0,0E0,0E0,0E0,0E0,0E0,0E0,0E0,0E0,0E0,0E0,0E0,0E0],"parents":[2147483647,0,0,1,1,2,2,3,3,4,4,5,5,6,6,7,7,8,8,10,10,12,12,14,14,16,16,19,19,20,20,21,21,23,23,24,24,25,25,26,26,29,29,33,33,34,34,35,35,36,36],"right_children":[2,4,6,8,10,12,14,16,18,-1,20,-1,22,-1,24,-1,26,-1,-1,28,30,32,-1,34,36,38,40,-1,-1,42,-1,-1,-1,44,46,48,50,-1,-1,-1,-1,-1,-1,-1,-1,-1,-1,-1,-1,-1,-1],"split_conditions":[-1.5823991E0,7.9331E4,-2.6788285E0,-3.0454953E0,-9.196641E-1,-4.2052054E-1,-2.0213819E0,3.6442125E-1,3.024E1,1.2588072E0,7.8505896E-2,-1.234451E0,-3.0454953E0,1.2367444E0,-1.670734E-1,3.971839E-1,-2.729288E-1,-3.673328E-1,-3.1710204E-2,3.8525805E-2,8.5594684E-1,-2.8668076E-1,-4.1789767E-1,-9.8352414E-1,-1.0691446E0,3.6476144E-1,4.2054124E0,2.9966453E-1,-4.0368584E-1,-3.0417545E0,-4.305209E-2,-4.3517668E-2,4.8255876E-1,8.1989E4,7.760304E-2,1.066606E-1,-8.944844E-1,-3.078635E-1,-8.550344E-2,-7.195708E-2,2.302716E-1,2.0065975E-1,1.0787139E0,5.9665775E-1,-2.0159039E-1,-3.1830248E-1,-1.5404174E-1,5.4376787E-1,-1.22482285E-1,2.0148131E-1,-1.3641751E-1],"split_indices":[7,0,10,14,13,23,10,20,29,0,24,0,14,0,21,0,26,0,0,23,5,24,0,11,19,25,2,0,0,6,0,0,0,0,23,6,16,0,0,0,0,0,0,0,0,0,0,0,0,0,0],"split_type":[0,0,0,0,0,0,0,0,0,0,0,0,0,0,0,0,0,0,0,0,0,0,0,0,0,0,0,0,0,0,0,0,0,0,0,0,0,0,0,0,0,0,0,0,0,0,0,0,0,0,0],"sum_hessian":[1.1095145E2,2.5738794E1,8.5212654E1,1.6496094E1,9.2427E0,6.238741E0,7.897391E1,1.3655859E1,2.8402343E0,1.8418152E0,7.4008846E0,1.7610241E0,4.4777164E0,1.1177132E0,7.78562E1,3.9565496E0,9.69931E0,1.8326029E0,1.0076315E0,3.7137268E0,3.687158E0,2.0289931E0,2.4487233E0,2.970956E1,4.8146637E1,3.4178987E0,6.281411E0,2.0003767E0,1.71335E0,2.4699783E0,1.2171797E0,1.006506E0,1.0224873E0,2.8777404E0,2.683182E1,9.877561E0,3.8269077E1,2.405016E0,1.0128828E0,1.7991854E0,4.482226E0,1.3414532E0,1.1285253E0,1.0063882E0,1.8713521E0,1.3975535E1,1.2856284E1,4.5045476E0,5.3730125E0,5.371369E0,3.289771E1],"tree_param":{"num_deleted":"0","num_feature":"30","num_nodes":"51","size_leaf_vector":"1"}},{"base_weights":[-3.8219757E-2,-3.0272412E-1,6.817392E-1,-2.0604525E0,-1.6284381E-1,3.6211643E0,3.184014E-1,-2.5353398E0,-7.3749684E-2,5.3101295E-1,-2.286501E-1,1.4795144E0,1.5229787E-1,1.5566645E0,-6.759313E-2,-1.0776327E0,-3.123968E-1,3.4377113E-2,-4.8547608E-1,2.4466212E0,-1.1906108E-1,-1.1181961E0,2.576025E-1,-7.5581545E-1,2.727294E-1,-8.3260465E-1,-5.8735885E-2,1.1896986E0,2.2859731E-1,-6.424282E-1,-1.5232374E-1,8.7911534E-1,-4.3755987E-1,-2.932196E-1,2.9726563E-2,-1.6093777E-1,2.1681784E-1,-2.0524E-2,-2.80336E-1,4.430326E-1,-1.1014285E-1,1.2949276E-1,-1.6486214E-1,4.9593982E-1,1.41377365E-2,-2.7688915E-1,2.4611555E-1],"categories":[],"categories_nodes":[],"categories_segments":[],"categories_sizes":[],"default_left":[0,0,0,0,0,0,0,0,0,0,0,0,0,0,0,0,0,0,0,0,0,0,0,0,0,0,0,0,0,0,0,0,0,0,0,0,0,0,0,0,0,0,0,0,0,0,0],"id":13,"left_children":[1,3,5,7,9,11,13,15,-1,-1,17,-1,-1,19,21,-1,-1,23,25,27,-1,29,31,33,35,37,39,-1,-1,-1,41,43,45,-1,-1,-1,-1,-1,-1,-1,-1,-1,-1,-1,-1,-1,-1],"loss_changes":[2.0047386E1,1.856913E1,2.9072557E1,4.186905E0,9.601817E0,9.806911E0,1.2667976E1,3.0748901E0,0E0,0E0,4.800153E0,0E0,0E0,1.1902775E1,7.46141E0,0E0,0E0,6.9709296E0,5.2682314E0,8.389994E0,0E0,4.763675E0,7.6630473E0,1.7237921E0,1.0703099E1,1.4707203E0,8.6764145E0,0E0,0E0,0E0,1.1014615E0,5.863728E0,6.0203886E0,0E0,0E0,0E0,0E0,0E0,0E0,0E0,0E0,0E0,0E0,0E0,0E0,0E0,0E0],"parents":[2147483647,0,0,1,1,2,2,3,3,4,4,5,5,6,6,7,7,10,10,13,13,14,14,17,17,18,18,19,19,21,21,22,22,23,23,24,24,25,25,26,26,30,30,31,31,32,32],"right_children":[2,4,6,8,10,12,14,16,-1,-1,18,-1,-1,20,22,-1,-1,24,26,28,-1,30,32,34,36,38,40,-1,-1,-1,42,44,46,-1,-1,-1,-1,-1,-1,-1,-1,-1,-1,-1,-1,-1,-1],"split_conditions":[1.8353833E0,-2.6788285E0,-1.2666616E0,9.722213E-1,-1.8897294E0,9.173448E-2,-4.9377832E-1,8.214417E-2,-7.3749684E-2,5.3101295E-1,-1.0547868E-1,1.4795144E0,1.5229787E-1,-2.0213819E0,1.3913918E0,-1.0776327E0,-3.123968E-1,-1.8989737E-1,1.1853233E-1,5.7590604E-1,-1.1906108E-1,-3.6280148E0,5.390341E-1,8E2,-2.8524736E-1,3.5814E4,2.4413356E-1,1.1896986E0,2.2859731E-1,-6.424282E-1,-3.0106542E-1,7.247372E-2,9.86E1,-2.932196E-1,2.9726563E-2,-1.6093777E-1,2.1681784E-1,-2.0524E-2,-2.80336E-1,4.430326E-1,-1.1014285E-1,1.2949276E-1,-1.6486214E-1,4.9593982E-1,1.41377365E-2,-2.7688915E-1,2.4611555E-1],"split_indices":[11,10,15,11,10,18,24,22,0,0,26,0,0,10,2,0,0,27,22,27,0,14,20,29,5,0,22,0,0,0,13,13,29,0,0,0,0,0,0,0,0,0,0,0,0,0,0],"split_type":[0,0,0,0,0,0,0,0,0,0,0,0,0,0,0,0,0,0,0,0,0,0,0,0,0,0,0,0,0,0,0,0,0,0,0,0,0,0,0,0,0,0,0,0,0,0,0],"sum_hessian":[1.03189316E2,7.588836E1,2.7300957E1,4.5819325E0,7.130643E1,2.016991E0,2.5283966E1,3.3167605E0,1.2651721E0,1.4950641E0,6.981136E1,1.0085094E0,1.0084815E0,5.2878327E0,1.9996132E1,1.1201273E0,2.196633E0,3.4917206E1,3.489416E1,3.4594364E0,1.8283961E0,4.150066E0,1.5846066E1,7.588519E0,2.7328688E1,1.8717484E1,1.6176676E1,1.1071174E0,2.352319E0,1.4241987E0,2.725867E0,8.226506E0,7.6195607E0,5.912714E0,1.6758049E0,9.697824E0,1.7630863E1,2.397825E0,1.6319658E1,2.0720177E0,1.4104658E1,1.0684389E0,1.6574281E0,3.7504346E0,4.4760714E0,5.6901803E0,1.9293804E0],"tree_param":{"num_deleted":"0","num_feature":"30","num_nodes":"47","size_leaf_vector":"1"}},{"base_weights":[-2.1096284E-2,8.1349665E-1,-9.310373E-2,5.9567267E-1,-3.132717E-1,-1.229803E0,9.932861E-1,-2.2123775E0,-1.7729074E-1,7.7594586E-2,-6.6250455E-1,3.919362E-1,3.093191E0,-9.461573E-1,-2.909512E-1,-1.7713897E-2,-7.2075915E-1,-4.5938544E-2,1.289742E0,1.2911803E0,1.963709E-1,-6.8159425E-1,1.1440233E-1,-9.099779E-1,2.5548893E-1,-3.3096278E-1,1.05438136E-1,6.6014266E-1,-2.2171012E-1,-2.5993428E-1,-7.6505337E-3,1.3697109E-1,-5.1718976E-2,-7.8255095E-2,-2.830103E-1,3.417073E-1,-1.8052213E-1],"categories":[],"categories_nodes":[],"categories_segments":[],"categories_sizes":[],"default_left":[0,0,0,0,0,0,0,0,0,0,0,0,0,0,0,0,0,0,0,0,0,0,0,0,0,0,0,0,0,0,0,0,0,0,0,0,0],"id":14,"left_children":[1,-1,3,5,7,9,11,13,15,-1,-1,17,19,-1,-1,21,23,25,27,-1,-1,29,31,33,35,-1,-1,-1,-1,-1,-1,-1,-1,-1,-1,-1,-1],"loss_changes":[1.9596325E1,0E0,1.4857766E1,1.8480988E1,1.870917E1,7.416513E0,2.4142971E1,2.621048E0,6.0676746E0,0E0,0E0,6.645742E0,9.952137E0,0E0,0E0,4.9215536E0,3.1675272E0,5.525114E0,1.1838104E1,0E0,0E0,1.1069574E0,4.682504E0,4.7139168E-2,3.2305324E0,0E0,0E0,0E0,0E0,0E0,0E0,0E0,0E0,0E0,0E0,0E0,0E0],"parents":[2147483647,0,0,2,2,3,3,4,4,5,5,6,6,7,7,8,8,11,11,12,12,15,15,16,16,17,17,18,18,21,21,22,22,23,23,24,24],"right_children":[2,-1,4,6,8,10,12,14,16,-1,-1,18,20,-1,-1,22,24,26,28,-1,-1,30,32,34,36,-1,-1,-1,-1,-1,-1,-1,-1,-1,-1,-1,-1],"split_conditions":[-2.12533E0,8.1349665E-1,-3.0454953E0,1.3406754E0,-2.6788285E0,-2.6480278E-1,-8.982139E-1,5.6214E4,2.7294818E-1,7.7594586E-2,-6.6250455E-1,-1.1585933E0,3.1034224E0,-9.461573E-1,-2.909512E-1,-4.586601E-1,3.7436264E0,-4.5613006E-1,1.8979738E0,1.2911803E0,1.963709E-1,4.226702E-1,9.0988E4,-1.5604115E0,8.024113E-1,-3.3096278E-1,1.05438136E-1,6.6014266E-1,-2.2171012E-1,-2.5993428E-1,-7.6505337E-3,1.3697109E-1,-5.1718976E-2,-7.8255095E-2,-2.830103E-1,3.417073E-1,-1.8052213E-1],"split_indices":[27,0,14,2,10,26,6,0,8,0,0,1,2,0,0,4,4,15,1,0,0,19,0,13,17,0,0,0,0,0,0,0,0,0,0,0,0],"split_type":[0,0,0,0,0,0,0,0,0,0,0,0,0,0,0,0,0,0,0,0,0,0,0,0,0,0,0,0,0,0,0,0,0,0,0,0,0],"sum_hessian":[9.730274E1,1.5569515E0,9.574579E1,2.2778788E1,7.2967E1,3.6997893E0,1.9078999E1,3.8552294E0,6.911177E1,1.7593492E0,1.9404402E0,1.5754131E1,3.3248665E0,1.318193E0,2.5370364E0,5.4223034E1,1.4888737E1,1.1227249E1,4.5268826E0,1.7106481E0,1.6142186E0,8.309413E0,4.591362E1,1.2528345E1,2.360392E0,2.5819516E0,8.645297E0,3.0659301E0,1.4609525E0,6.2327304E0,2.0766828E0,2.0665962E1,2.5247658E1,1.0440139E0,1.1484331E1,1.0004811E0,1.3599108E0],"tree_param":{"num_deleted":"0","num_feature":"30","num_nodes":"37","size_leaf_vector":"1"}},{"base_weights":[-2.1380773E-2,7.7037674E-1,-2.331015E-1,1.1263307E0,4.0966228E-1,-1.3771503E-1,-1.8421353E0,-4.0162233E-1,6.7995524E-1,-1.9080044E-1,4.7827724E-1,-7.666512E-1,-2.0296665E-1,1.5752986E-1,2.118302E0,-9.380917E-2,-2.8685668E-1,4.9953488E-1,-1.0543732E-1,2.8193707E0,2.0522695E-2,1.3474488E-1,-4.43875E-1,-1.3486843E-1,1.9042127E-1,1.1788514E0,1.6613853E-1,-7.878917E-2,2.5242707E-1,-1.8046543E-1,2.3542999E-1],"categories":[],"categories_nodes":[],"categories_segments":[],"categories_sizes":[],"default_left":[0,0,0,0,0,0,0,0,0,0,0,0,0,0,0,0,0,0,0,0,0,0,0,0,0,0,0,0,0,0,0],"id":15,"left_children":[1,3,5,-1,7,9,11,-1,13,15,-1,-1,-1,17,19,21,-1,-1,23,25,-1,27,29,-1,-1,-1,-1,-1,-1,-1,-1],"loss_changes":[1.5899516E1,2.000915E1,1.1220298E1,0E0,9.88064E0,6.892396E0,1.6826687E0,0E0,1.251818E1,5.137847E0,0E0,0E0,0E0,5.577783E0,6.2405586E0,5.1489305E0,0E0,0E0,3.4802604E0,6.151108E0,0E0,1.1242866E1,5.38453E0,0E0,0E0,0E0,0E0,0E0,0E0,0E0,0E0],"parents":[2147483647,0,0,1,1,2,2,4,4,5,5,6,6,8,8,9,9,13,13,14,14,15,15,18,18,19,19,21,21,22,22],"right_children":[2,4,6,-1,8,10,12,-1,14,16,-1,-1,-1,18,20,22,-1,-1,24,26,-1,28,30,-1,-1,-1,-1,-1,-1,-1,-1],"split_conditions":[-1.5823991E0,-1.3924978E0,7.212482E-1,1.1263307E0,1.044743E0,3.6185548E0,-2.6788285E0,-4.0162233E-1,5.9425634E-1,1.5442922E0,4.7827724E-1,-7.666512E-1,-2.0296665E-1,-1.3587804E0,-7.290244E-1,-4.4088294E-3,-2.8685668E-1,4.9953488E-1,1.6925534E0,2.634007E-1,2.0522695E-2,1.8055783E-1,9.910089E-1,-1.3486843E-1,1.9042127E-1,1.1788514E0,1.6613853E-1,-7.878917E-2,2.5242707E-1,-1.8046543E-1,2.3542999E-1],"split_indices":[7,15,27,0,4,5,10,0,22,9,0,0,0,25,5,12,0,0,21,13,0,22,9,0,0,0,0,0,0,0,0],"split_type":[0,0,0,0,0,0,0,0,0,0,0,0,0,0,0,0,0,0,0,0,0,0,0,0,0,0,0,0,0,0,0],"sum_hessian":[9.277678E1,1.9017963E1,7.375882E1,1.036343E0,1.798162E1,7.06558E1,3.1030169E0,1.8783692E0,1.610325E1,6.941795E1,1.2378423E0,1.1851789E0,1.917838E0,1.2626626E1,3.4766247E0,6.2606876E1,6.8110814E0,1.0834123E0,1.1543214E1,2.3109126E0,1.1657121E0,3.8249374E1,2.43575E1,8.147762E0,3.395451E0,1.0580349E0,1.2528777E0,2.488471E1,1.3364665E1,2.203948E1,2.31802E0],"tree_param":{"num_deleted":"0","num_feature":"30","num_nodes":"31","size_leaf_vector":"1"}},{"base_weights":[-1.2103613E-2,-3.5629526E-1,3.8868222E-1,-1.0615617E0,-1.5369897E-1,1.3729405E0,-3.549755E-2,-1.0778573E-2,-3.4886056E-1,8.644476E-1,-2.887257E-1,5.2550685E-1,3.8309753E0,1.0513841E0,-3.1019333E-1,5.298932E-1,-1.1633633E-1,-7.98186E-1,-3.5585213E-2,-4.00772E-2,1.7755897E0,-1.5974158E-2,1.7276672E0,-4.678804E-1,2.3759286E0,-8.152685E-1,2.2211786E-1,-2.8648478E-1,4.7984146E-2,-3.775877E-1,7.853831E-1,-7.468303E-1,4.2677432E-1,-4.5575894E-2,8.463259E-1,1.1945434E-1,-2.7795368E-1,1.0090747E0,3.8659047E-2,-9.96853E-1,2.1225964E-1,-6.3156354E-1,6.1589617E-1,-2.3494874E-1,1.7520644E-1,8.223092E-1,-2.4296107E-2,-2.6245034E-1,-6.2257577E-2,3.5696155E-1,-1.2456518E-1,-1.1938635E-1,-3.6125845E-1,5.210517E-2,-3.1449202E-1,-2.3214339E-1,2.7470118E-1],"categories":[],"categories_nodes":[],"categories_segments":[],"categories_sizes":[],"default_left":[0,0,0,0,0,0,0,0,0,0,0,0,0,0,0,0,0,0,0,0,0,0,0,0,0,0,0,0,0,0,0,0,0,0,0,0,0,0,0,0,0,0,0,0,0,0,0,0,0,0,0,0,0,0,0,0,0],"id":16,"left_children":[1,3,5,7,9,11,13,-1,-1,15,17,19,21,23,25,-1,-1,27,29,31,33,-1,-1,35,37,39,41,-1,-1,43,45,47,49,-1,-1,-1,-1,-1,-1,51,-1,53,55,-1,-1,-1,-1,-1,-1,-1,-1,-1,-1,-1,-1,-1,-1],"loss_changes":[1.2864922E1,7.0030503E0,1.8043922E1,1.1035395E0,5.7666774E0,2.5079077E1,9.610133E0,0E0,0E0,6.274501E0,4.63776E0,7.7288065E0,2.4086014E1,1.419449E1,7.062326E0,0E0,0E0,1.9496751E0,7.377097E0,3.101809E0,7.2719717E0,0E0,0E0,1.9035392E0,7.6399345E0,4.396062E0,4.8421416E0,0E0,0E0,7.66362E0,1.3337179E1,7.518339E-2,4.1666493E0,0E0,0E0,0E0,0E0,0E0,0E0,1.0531769E0,0E0,1.7510376E0,4.6961365E0,0E0,0E0,0E0,0E0,0E0,0E0,0E0,0E0,0E0,0E0,0E0,0E0,0E0,0E0],"parents":[2147483647,0,0,1,1,2,2,3,3,4,4,5,5,6,6,9,9,10,10,11,11,12,12,13,13,14,14,17,17,18,18,19,19,20,20,23,23,24,24,25,25,26,26,29,29,30,30,31,31,32,32,39,39,41,41,42,42],"right_children":[2,4,6,8,10,12,14,-1,-1,16,18,20,22,24,26,-1,-1,28,30,32,34,-1,-1,36,38,40,42,-1,-1,44,46,48,50,-1,-1,-1,-1,-1,-1,52,-1,54,56,-1,-1,-1,-1,-1,-1,-1,-1,-1,-1,-1,-1,-1,-1],"split_conditions":[6.1066306E-1,-4.537488E-1,-7.550589E-1,-1.4428774E0,-9.869141E-1,4.924999E-1,-9.5589894E-1,-1.0778573E-2,-3.4886056E-1,5.327111E-1,-9.647009E-1,1.2832019E0,1.044743E0,-7.0109675E-3,2.8429534E0,5.298932E-1,-1.1633633E-1,6.5753204E-1,3.0815676E-1,-1.1020303E0,-4.5613006E-1,-1.5974158E-2,1.7276672E0,-1.1019876E-1,4.008452E-1,1.50041E5,-3.6689898E-1,-2.8648478E-1,4.7984146E-2,1.506496E-1,-5.1416974E-3,4.133976E0,-5.436876E-1,-4.5575894E-2,8.463259E-1,1.1945434E-1,-2.7795368E-1,1.0090747E0,3.8659047E-2,-1.2562945E-1,2.1225964E-1,-6.598597E-2,-1.1645925E0,-2.3494874E-1,1.7520644E-1,8.223092E-1,-2.4296107E-2,-2.6245034E-1,-6.2257577E-2,3.5696155E-1,-1.2456518E-1,-1.1938635E-1,-3.6125845E-1,5.210517E-2,-3.1449202E-1,-2.3214339E-1,2.7470118E-1],"split_indices":[11,18,13,11,20,22,15,0,0,10,1,16,4,27,4,0,0,24,25,6,15,0,0,25,27,0,15,0,0,20,28,4,10,0,0,0,0,0,0,22,0,24,21,0,0,0,0,0,0,0,0,0,0,0,0,0,0],"split_type":[0,0,0,0,0,0,0,0,0,0,0,0,0,0,0,0,0,0,0,0,0,0,0,0,0,0,0,0,0,0,0,0,0,0,0,0,0,0,0,0,0,0,0,0,0,0,0,0,0,0,0,0,0,0,0,0,0],"sum_hessian":[9.12559E1,4.9153915E1,4.2101982E1,1.002292E1,3.9130997E1,1.2006241E1,3.009574E1,1.022791E0,9.000129E0,3.9493713E0,3.5181625E1,9.83077E0,2.1754713E0,5.5013285E0,2.4594412E1,2.057226E0,1.8921455E0,1.0963598E1,2.4218027E1,7.4348893E0,2.3958805E0,1.0441583E0,1.1313128E0,2.8635602E0,2.637768E0,1.2347302E1,1.2247109E1,9.424885E0,1.5387129E0,1.7477322E1,6.740707E0,2.7189827E0,4.7159066E0,1.1431061E0,1.2527742E0,1.037048E0,1.8265122E0,1.4872143E0,1.1505538E0,1.134041E1,1.0068915E0,3.6753578E0,8.571752E0,1.24232E1,5.0541215E0,1.4051247E0,5.3355823E0,1.6946143E0,1.0243683E0,2.2571166E0,2.4587898E0,3.6671915E0,7.673219E0,1.452335E0,2.2230227E0,1.2403537E0,7.331398E0],"tree_param":{"num_deleted":"0","num_feature":"30","num_nodes":"57","size_leaf_vector":"1"}},{"base_weights":[-1.7201101E-2,1.8807946E0,-8.559622E-2,-1.8600678E-1,1.07195E0,4.8352417E-1,-2.43147E-1,8.1553274E-1,1.7487043E-1,-1.1075315E0,-1.0509913E-1,6.40633E-1,-1.7567426E-1,-7.97027E-3,-1.3076158E0,3.2548364E-2,-7.940885E-1,-6.538682E-1,1.9612175E-1,-5.5383164E-1,-2.6315024E-1,1.8306527E-1,-6.199389E-1,-5.4719944E-2,-2.739016E-1,-1.0646199E-1,3.5143167E-1,2.5767492E-2,4.7011334E-1,-2.348653E-1,6.778968E-2],"categories":[],"categories_nodes":[],"categories_segments":[],"categories_sizes":[],"default_left":[0,0,0,0,0,0,0,0,0,0,0,0,0,0,0,0,0,0,0,0,0,0,0,0,0,0,0,0,0,0,0],"id":17,"left_children":[1,3,5,-1,-1,7,9,-1,11,13,15,-1,17,-1,19,21,23,-1,25,-1,-1,27,29,-1,-1,-1,-1,-1,-1,-1,-1],"loss_changes":[1.1680469E1,1.5462753E1,7.883354E0,0E0,0E0,1.2708628E1,8.05701E0,0E0,1.2651048E1,1.982748E0,5.7320614E0,0E0,1.2405137E1,0E0,2.002964E-1,5.1330156E0,5.651083E-1,0E0,8.19615E0,0E0,0E0,5.554417E0,1.5288217E0,0E0,0E0,0E0,0E0,0E0,0E0,0E0,0E0],"parents":[2147483647,0,0,1,1,2,2,5,5,6,6,8,8,9,9,10,10,12,12,14,14,15,15,16,16,18,18,21,21,22,22],"right_children":[2,4,6,-1,-1,8,10,-1,12,14,16,-1,18,-1,20,22,24,-1,26,-1,-1,28,30,-1,-1,-1,-1,-1,-1,-1,-1],"split_conditions":[-2.12533E0,-5.537574E-1,-3.0454953E0,-1.8600678E-1,1.07195E0,-1.2666616E0,-7.6206183E-1,8.1553274E-1,-3.6244485E-1,-1.315135E0,1.3913918E0,6.40633E-1,2.0368955E0,-7.97027E-3,-2.2287238E0,1.278389E0,-1.1754075E0,-6.538682E-1,1.9286008E-1,-5.5383164E-1,-2.6315024E-1,1.0860246E0,9.232327E-1,-5.4719944E-2,-2.739016E-1,-1.0646199E-1,3.5143167E-1,2.5767492E-2,4.7011334E-1,-2.348653E-1,6.778968E-2],"split_indices":[27,26,14,0,0,15,18,0,26,19,2,0,4,0,10,3,22,0,26,0,0,3,22,0,0,0,0,0,0,0,0],"split_type":[0,0,0,0,0,0,0,0,0,0,0,0,0,0,0,0,0,0,0,0,0,0,0,0,0,0,0,0,0,0,0],"sum_hessian":[8.7738594E1,2.1300404E0,8.560855E1,1.1154206E0,1.0146198E0,1.8112349E1,6.749621E1,1.250468E0,1.686188E1,8.327967E0,5.916824E1,1.7852592E0,1.5076621E1,1.4776545E0,6.850312E0,5.0109947E1,9.058292E0,1.5985565E0,1.3478065E1,1.5821952E0,5.268117E0,4.1301807E1,8.808138E0,1.8867911E0,7.1715016E0,9.019014E0,4.45905E0,3.9584515E1,1.7172949E0,7.447951E0,1.3601875E0],"tree_param":{"num_deleted":"0","num_feature":"30","num_nodes":"31","size_leaf_vector":"1"}},{"base_weights":[-1.4541277E-2,8.098094E-1,-1.8990448E-1,-2.0932892E-1,2.0228767E0,-9.324901E-1,-1.1025231E-1,5.998204E-1,-6.883593E-1,-3.1422374E-1,-3.8897794E-2,-8.456809E-1,-1.5697319E-2,-1.4772367E0,6.830041E-3,-7.181278E-5,-2.9303724E-1,9.0322095E-1,-9.0389475E-2,-5.0685935E-2,-1.7447788E0,-4.142546E-1,2.1794681E-1,5.9097147E-1,-1.0511391E-1,-7.856399E-4,-7.6896614E-1,-1.9869861E-1,-6.636055E-1,-3.1238702E-1,3.163094E-2,-1.3033403E-1,5.008882E-2,-3.6793858E-2,-2.5896612E-1],"categories":[],"categories_nodes":[],"categories_segments":[],"categories_sizes":[],"default_left":[0,0,0,0,0,0,0,0,0,0,0,0,0,0,0,0,0,0,0,0,0,0,0,0,0,0,0,0,0,0,0,0,0,0,0],"id":18,"left_children":[1,3,5,7,-1,9,11,-1,13,-1,-1,15,17,19,21,-1,-1,23,25,-1,27,29,-1,-1,-1,31,33,-1,-1,-1,-1,-1,-1,-1,-1],"loss_changes":[1.2693498E1,9.456598E1,4.1758547E0,1.6313261E1,0E0,4.983573E-1,4.60854E0,0E0,6.7804546E0,0E0,0E0,8.36977E-1,4.193707E0,1.730977E0,2.591215E0,0E0,0E0,6.8341546E0,3.423616E0,0E0,9.1085625E-1,1.871012E0,0E0,0E0,0E0,3.7642906E0,2.9424047E-1,0E0,0E0,0E0,0E0,0E0,0E0,0E0,0E0],"parents":[2147483647,0,0,1,1,2,2,3,3,5,5,6,6,8,8,11,11,12,12,13,13,14,14,17,17,18,18,20,20,21,21,25,25,26,26],"right_children":[2,4,6,8,-1,10,12,-1,14,-1,-1,16,18,20,22,-1,-1,24,26,-1,28,30,-1,-1,-1,32,34,-1,-1,-1,-1,-1,-1,-1,-1],"split_conditions":[-2.0213819E0,-2.6788285E0,-1.0552279E0,-9.241143E-1,2.0228767E0,3.9858103E-1,-4.1305342E-1,5.998204E-1,9.1082925E-1,-3.1422374E-1,-3.8897794E-2,-1.0030019E0,-7.5192654E-1,4.6499E4,-3.7678845E-2,-7.181278E-5,-2.9303724E-1,-5.5810237E-1,1.6102872E0,-5.0685935E-2,-5.7447676E-2,-2.5068438E-1,2.1794681E-1,5.9097147E-1,-1.0511391E-1,-8.881223E-1,-4.9210835E-1,-1.9869861E-1,-6.636055E-1,-3.1238702E-1,3.163094E-2,-1.3033403E-1,5.008882E-2,-3.6793858E-2,-2.5896612E-1],"split_indices":[10,10,24,15,0,21,28,0,8,0,0,9,24,0,22,0,0,12,6,0,26,15,0,0,0,6,25,0,0,0,0,0,0,0,0],"split_type":[0,0,0,0,0,0,0,0,0,0,0,0,0,0,0,0,0,0,0,0,0,0,0,0,0,0,0,0,0,0,0,0,0,0,0],"sum_hessian":[8.574353E1,1.4405935E1,7.133759E1,1.3117453E1,1.2884829E0,5.8734293E0,6.5464165E1,1.7722143E0,1.1345239E1,4.87145E0,1.0019794E0,6.5529466E0,5.8911217E1,4.7875485E0,6.5576897E0,1.0142885E0,5.538658E0,3.5946453E0,5.531657E1,1.0898194E0,3.6977289E0,4.4047637E0,2.1529264E0,1.633397E0,1.9612484E0,4.9748592E1,5.5679817E0,1.8437842E0,1.8539448E0,1.5413591E0,2.8634045E0,1.3432689E1,3.6315903E1,1.0015284E0,4.566453E0],"tree_param":{"num_deleted":"0","num_feature":"30","num_nodes":"35","size_leaf_vector":"1"}},{"base_weights":[-3.3039697E-2,7.268897E-1,-1.8755224E-1,-1.7177352E-1,1.8446884E0,-1.0142335E-1,-9.001286E-1,-1.7973193E0,3.519403E-1,-7.0182425E-1,2.4801257E-4,2.0529632E-3,-3.1407845E-1,-1.6296305E-1,-6.883447E-1,9.309295E-1,-2.6224092E-1,-2.6381564E-1,-1.104937E-1,1.12028025E-1,-6.7746025E-1,-5.1667774E-1,1.9637622E-1,-1.737946E-1,1.4903037E-1,4.2176858E-1,-1.988796E-1,-2.7131662E-1,1.271551E-1,-3.6832564E-2,-3.5759577E-1,-1.1686211E-1,2.0419896E-1,9.454596E-2,-1.3618773E-1],"categories":[],"categories_nodes":[],"categories_segments":[],"categories_sizes":[],"default_left":[0,0,0,0,0,0,0,0,0,0,0,0,0,0,0,0,0,0,0,0,0,0,0,0,0,0,0,0,0,0,0,0,0,0,0],"id":19,"left_children":[1,3,5,7,-1,9,11,13,15,17,19,-1,-1,-1,-1,-1,21,-1,23,25,27,29,-1,-1,-1,31,33,-1,-1,-1,-1,-1,-1,-1,-1],"loss_changes":[1.0343126E1,7.362415E1,4.391023E0,1.2336843E1,0E0,4.0464416E0,1.0388412E0,9.4448376E-1,1.9796883E1,9.107528E-1,4.445811E0,0E0,0E0,0E0,0E0,0E0,2.6957555E0,0E0,1.2445178E0,4.935136E0,2.4599788E0,2.1066554E0,0E0,0E0,0E0,5.6329875E0,3.5285985E0,0E0,0E0,0E0,0E0,0E0,0E0,0E0,0E0],"parents":[2147483647,0,0,1,1,2,2,3,3,5,5,6,6,7,7,8,8,9,9,10,10,16,16,18,18,19,19,20,20,21,21,25,25,26,26],"right_children":[2,4,6,8,-1,10,12,14,16,18,20,-1,-1,-1,-1,-1,22,-1,24,26,28,30,-1,-1,-1,32,34,-1,-1,-1,-1,-1,-1,-1,-1],"split_conditions":[-2.2287238E0,-2.6788285E0,7.063953E-1,1.3913918E0,1.8446884E0,-4.586601E-1,-1.7124515E0,6.3415056E-1,-7.9211926E-1,4.226702E-1,1.8979738E0,2.0529632E-3,-3.1407845E-1,-1.6296305E-1,-6.883447E-1,9.309295E-1,1.6925534E0,-2.6381564E-1,-2.9638443E-2,-5.422272E-2,-1.0033455E-1,5.1293015E-1,1.9637622E-1,-1.737946E-1,1.4903037E-1,-7.4373726E-3,-4.943863E-1,-2.7131662E-1,1.271551E-1,-3.6832564E-2,-3.5759577E-1,-1.1686211E-1,2.0419896E-1,9.454596E-2,-1.3618773E-1],"split_indices":[10,10,25,2,0,4,6,27,15,19,1,0,0,0,0,0,21,0,23,6,6,25,0,0,0,28,7,0,0,0,0,0,0,0,0],"split_type":[0,0,0,0,0,0,0,0,0,0,0,0,0,0,0,0,0,0,0,0,0,0,0,0,0,0,0,0,0,0,0,0,0,0,0],"sum_hessian":[8.592655E1,1.3893012E1,7.203354E1,1.2748392E1,1.1446204E0,6.5284904E1,6.7486334E0,2.513844E0,1.0234548E1,8.599475E0,5.6685432E1,1.072958E0,5.6756754E0,1.3077139E0,1.2061301E0,1.1282519E0,9.106296E0,6.2389503E0,2.3605247E0,4.9376118E1,7.3093147E0,7.4697523E0,1.6365433E0,1.3580755E0,1.0024492E0,2.4555862E1,2.4820255E1,6.208782E0,1.1005323E0,5.4642816E0,2.0054708E0,5.818271E0,1.873759E1,8.153641E0,1.6666615E1],"tree_param":{"num_deleted":"0","num_feature":"30","num_nodes":"35","size_leaf_vector":"1"}},{"base_weights":[-3.4389094E-2,-9.171892E-2,5.771722E-1,-7.006571E-1,3.871855E-2,-3.184969E-1,-1.945792E-1,5.813531E-1,-8.964928E-2,-5.2927357E-1,2.677529E-1,-1.4318483E-1,9.604062E-1,7.830729E-2,-6.042988E-1,-2.4599908E-1,1.4426407E-1,8.401952E-1,-5.7381314E-1,2.794494E-1,-4.096509E-1,-3.471575E-1,-7.9868756E-2,-4.6918213E-2,5.12486E-1,-4.6018717E-1,-5.980097E-3,-8.946685E-2,1.74658E-1,1.7386933E-1,-1.9453348E-1,1.2517996E-1,-1.9111985E-1],"categories":[],"categories_nodes":[],"categories_segments":[],"categories_sizes":[],"default_left":[0,0,0,0,0,0,0,0,0,0,0,0,0,0,0,0,0,0,0,0,0,0,0,0,0,0,0,0,0,0,0,0,0],"id":20,"left_children":[1,3,-1,5,7,-1,9,11,13,15,-1,17,-1,19,21,-1,-1,23,25,27,29,-1,31,-1,-1,-1,-1,-1,-1,-1,-1,-1,-1],"loss_changes":[9.648941E0,6.6139603E0,0E0,2.475762E0,4.87556E0,0E0,3.1419609E0,2.5859118E1,4.9626565E0,2.2261825E0,0E0,5.326331E0,0E0,4.4093266E0,3.9977922E0,0E0,0E0,3.6321614E0,4.516198E0,5.6965933E0,3.4887607E0,0E0,2.5687435E0,0E0,0E0,0E0,0E0,0E0,0E0,0E0,0E0,0E0,0E0],"parents":[2147483647,0,0,1,1,3,3,4,4,6,6,7,7,8,8,9,9,11,11,13,13,14,14,17,17,18,18,19,19,20,20,22,22],"right_children":[2,4,-1,6,8,-1,10,12,14,16,-1,18,-1,20,22,-1,-1,24,26,28,30,-1,32,-1,-1,-1,-1,-1,-1,-1,-1,-1,-1],"split_conditions":[1.7856927E0,-2.0997137E-2,5.771722E-1,2.1766607E-1,-2.2287238E0,-3.184969E-1,1.3546766E0,-2.6788285E0,1.429538E0,9.289843E-1,2.677529E-1,1.5043324E-1,9.604062E-1,6.290028E-2,-1.4765717E-1,-2.4599908E-1,1.4426407E-1,5.6214E4,-3.7643337E-1,-2.8524736E-1,7.7E-1,-3.471575E-1,9.49E0,-4.6918213E-2,5.12486E-1,-4.6018717E-1,-5.980097E-3,-8.946685E-2,1.74658E-1,1.7386933E-1,-1.9453348E-1,1.2517996E-1,-1.9111985E-1],"split_indices":[22,4,0,17,10,0,7,10,5,11,0,28,0,27,21,0,0,0,15,5,29,0,29,0,0,0,0,0,0,0,0,0,0],"split_type":[0,0,0,0,0,0,0,0,0,0,0,0,0,0,0,0,0,0,0,0,0,0,0,0,0,0,0,0,0,0,0,0,0],"sum_hessian":[8.337326E1,8.1927956E1,1.445306E0,1.36821575E1,6.82458E1,7.3449755E0,6.3371825E0,1.2380849E1,5.5864944E1,5.237715E0,1.0994674E0,1.0439302E1,1.9415472E0,4.2758495E1,1.3106451E1,4.213353E0,1.0243617E0,2.8895814E0,7.549721E0,3.058026E1,1.2178234E1,5.792743E0,7.3137074E0,1.7269006E0,1.162681E0,2.1146026E0,5.4351177E0,1.0520603E1,2.0059656E1,2.0906348E0,1.00876E1,3.997893E0,3.315814E0],"tree_param":{"num_deleted":"0","num_feature":"30","num_nodes":"33","size_leaf_vector":"1"}},{"base_weights":[-3.0791368E-2,4.7274566E-1,-1.7676267E-1,9.744031E-1,7.973955E-2,-6.918696E-1,-4.8625186E-2,9.08393E-1,-3.914961E-1,8.320469E-2,-8.1991875E-1,-4.8206928E-1,1.674893E-1,1.3607624E0,-1.7027089E-1,7.2531176E-1,-7.426028E-1,-3.1474155E-1,-3.014376E-1,6.296592E-1,-7.1814424E-1,5.2944237E-1,-2.2214335E-1,3.210613E-1,7.6421696E-1,3.2987913E-1,-8.631413E-3,-1.359946E0,-8.624128E-2,2.2017479E-1,-2.2543791E-1,-1.9867375E-1,6.075531E-1,-8.315169E-1,1.2834778E-1,-1.2088634E-1,1.0091017E0,-4.7269216E-1,6.378078E-1,2.5229135E-1,-1.5610616E-1,-4.820564E-2,-6.654453E-1,-1.5774685E-1,1.9405526E-1,-1.5212452E-1,-3.4474105E-1,-1.3708755E-1,2.0451686E-1,4.3479797E-1,-5.045848E-2,3.4414068E-2,-2.3884091E-1,4.0936825E-1,-1.7751212E-1],"categories":[],"categories_nodes":[],"categories_segments":[],"categories_sizes":[],"default_left":[0,0,0,0,0,0,0,0,0,0,0,0,0,0,0,0,0,0,0,0,0,0,0,0,0,0,0,0,0,0,0,0,0,0,0,0,0,0,0,0,0,0,0,0,0,0,0,0,0,0,0,0,0,0,0],"id":21,"left_children":[1,3,5,-1,7,9,11,13,15,-1,17,19,21,23,-1,25,27,-1,29,31,33,35,37,39,-1,-1,-1,41,43,-1,-1,-1,-1,45,-1,47,49,51,53,-1,-1,-1,-1,-1,-1,-1,-1,-1,-1,-1,-1,-1,-1,-1,-1],"loss_changes":[6.2010937E0,2.0439405E1,4.2732997E0,0E0,7.2471714E0,1.8312421E0,5.0762825E0,5.2451644E0,5.2241726E0,0E0,1.070405E0,5.1765747E0,5.2409387E0,5.8712835E0,0E0,9.811046E-1,3.766686E0,0E0,2.8718767E0,7.986205E0,2.3455238E0,6.0889025E0,4.2227683E0,2.2023377E0,0E0,0E0,0E0,4.657648E0,2.1813402E0,0E0,0E0,0E0,0E0,8.884125E-1,0E0,2.7425768E0,6.0048437E0,2.8781035E0,4.85684E0,0E0,0E0,0E0,0E0,0E0,0E0,0E0,0E0,0E0,0E0,0E0,0E0,0E0,0E0,0E0,0E0],"parents":[2147483647,0,0,1,1,2,2,4,4,5,5,6,6,7,7,8,8,10,10,11,11,12,12,13,13,15,15,16,16,18,18,19,19,20,20,21,21,22,22,23,23,27,27,28,28,33,33,35,35,36,36,37,37,38,38],"right_children":[2,4,6,-1,8,10,12,14,16,-1,18,20,22,24,-1,26,28,-1,30,32,34,36,38,40,-1,-1,-1,42,44,-1,-1,-1,-1,46,-1,48,50,52,54,-1,-1,-1,-1,-1,-1,-1,-1,-1,-1,-1,-1,-1,-1,-1,-1],"split_conditions":[-1.1537908E0,-1.2666616E0,-6.3236225E-1,9.744031E-1,6.67753E-2,-7.114848E-1,-1.670734E-1,5.4736847E-1,-3.2207286E-1,8.320469E-2,-4.586149E-1,-1.0906295E0,-8.0741286E-1,-6.132394E-1,-1.7027089E-1,-1.4614038E0,3.9088724E0,-3.1474155E-1,-8.21844E-1,4.5833804E-2,5.6004316E-1,-8.6119163E-1,1.066889E0,-3.0454953E0,7.6421696E-1,3.2987913E-1,-8.631413E-3,6.325418E-1,9.041E1,2.2017479E-1,-2.2543791E-1,-1.9867375E-1,6.075531E-1,5.795172E-1,1.2834778E-1,2.068097E0,4.705392E-2,7.49E0,7.3159117E-1,2.5229135E-1,-1.5610616E-1,-4.820564E-2,-6.654453E-1,-1.5774685E-1,1.9405526E-1,-1.5212452E-1,-3.4474105E-1,-1.3708755E-1,2.0451686E-1,4.3479797E-1,-5.045848E-2,3.4414068E-2,-2.3884091E-1,4.0936825E-1,-1.7751212E-1],"split_indices":[16,15,5,0,28,26,21,10,24,0,2,13,14,3,0,6,4,0,21,27,26,6,7,14,0,0,0,19,29,0,0,0,0,7,0,11,27,29,14,0,0,0,0,0,0,0,0,0,0,0,0,0,0,0,0],"split_type":[0,0,0,0,0,0,0,0,0,0,0,0,0,0,0,0,0,0,0,0,0,0,0,0,0,0,0,0,0,0,0,0,0,0,0,0,0,0,0,0,0,0,0,0,0,0,0,0,0,0,0,0,0,0,0],"sum_hessian":[8.222948E1,1.7977245E1,6.4252235E1,1.328852E0,1.6648392E1,1.1922976E1,5.2329258E1,5.6990695E0,1.0949323E1,1.255324E0,1.0667652E1,1.7001017E1,3.5328243E1,4.4218597E0,1.2772098E0,2.3640177E0,8.585305E0,6.687593E0,3.9800587E0,2.6857994E0,1.4315218E1,1.812864E1,1.7199602E1,3.0340486E0,1.3878114E0,1.2736548E0,1.0903629E0,3.8717606E0,4.713545E0,1.0147066E0,2.965352E0,1.667528E0,1.0182713E0,1.3276182E1,1.0390351E0,8.012778E0,1.0115861E1,1.3667787E1,3.5318155E0,1.8756274E0,1.1584212E0,2.1101959E0,1.7615647E0,3.1234024E0,1.5901423E0,7.852101E0,5.4240813E0,5.9514284E0,2.06135E0,7.1945505E0,2.9213107E0,5.0826116E0,8.585175E0,2.1507146E0,1.381101E0],"tree_param":{"num_deleted":"0","num_feature":"30","num_nodes":"55","size_leaf_vector":"1"}},{"base_weights":[-3.663095E-2,-7.3221874E-1,5.9020825E-2,-9.210137E-1,1.1838536E-1,5.44666E-1,-7.7048917E-3,-3.079302E-1,-5.378298E-2,6.210106E-2,-9.293856E-1,2.541174E-1,-3.2874528E-1,-3.4415635E-1,-2.4760576E-2,4.3870828E-1,-4.9885485E-1,1.4627023E-1,-6.314189E-1,-9.607238E-2,2.1724056E-1,-2.317624E-1,1.326238E-1,-2.304856E-1,2.2103739E-1,-2.8431022E-1,-1.6473306E-2],"categories":[],"categories_nodes":[],"categories_segments":[],"categories_sizes":[],"default_left":[0,0,0,0,0,0,0,0,0,0,0,0,0,0,0,0,0,0,0,0,0,0,0,0,0,0,0],"id":22,"left_children":[1,3,5,7,-1,-1,9,-1,-1,11,13,15,17,-1,-1,19,21,23,25,-1,-1,-1,-1,-1,-1,-1,-1],"loss_changes":[5.4569864E0,2.471942E0,8.5063925E0,5.032139E-1,0E0,0E0,4.612981E0,0E0,0E0,5.093338E0,8.362913E-1,6.5188866E0,3.316811E0,0E0,0E0,8.232853E0,2.7601626E0,5.718533E0,2.4800396E0,0E0,0E0,0E0,0E0,0E0,0E0,0E0,0E0],"parents":[2147483647,0,0,1,1,2,2,3,3,6,6,9,9,10,10,11,11,12,12,15,15,16,16,17,17,18,18],"right_children":[2,4,6,8,-1,-1,10,-1,-1,12,14,16,18,-1,-1,20,22,24,26,-1,-1,-1,-1,-1,-1,-1,-1],"split_conditions":[-2.9504853E-1,1.56374E5,-2.12533E0,2.1754432E0,1.1838536E-1,5.44666E-1,1.5961736E0,-3.079302E-1,-5.378298E-2,-1.9719893E-2,2.992881E-1,1.2456738E0,9.132319E-1,-3.4415635E-1,-2.4760576E-2,-1.1871305E0,-3.267069E-1,-9.893614E-2,2.2160761E-1,-9.607238E-2,2.1724056E-1,-2.317624E-1,1.326238E-1,-2.304856E-1,2.2103739E-1,-2.8431022E-1,-1.6473306E-2],"split_indices":[4,0,27,7,0,0,13,0,0,12,20,1,4,0,0,5,12,25,10,0,0,0,0,0,0,0,0],"split_type":[0,0,0,0,0,0,0,0,0,0,0,0,0,0,0,0,0,0,0,0,0,0,0,0,0,0,0],"sum_hessian":[8.0368225E1,8.9110775E0,7.145715E1,7.7887692E0,1.122308E0,1.6559379E0,6.9801216E1,6.4834743E0,1.3052951E0,6.575379E1,4.047417E0,4.4326664E1,2.142713E1,2.9373145E0,1.1101029E0,3.593466E1,8.392004E0,8.540469E0,1.2886661E1,9.787566E0,2.6147095E1,6.6397E0,1.7523041E0,3.2327673E0,5.307702E0,7.905635E0,4.981026E0],"tree_param":{"num_deleted":"0","num_feature":"30","num_nodes":"27","size_leaf_vector":"1"}},{"base_weights":[-4.9160242E-2,-1.1749336E-1,9.214788E-1,-8.7703574E-1,-4.848988E-2,-6.665428E-2,7.808232E-1,-3.1295997E-1,-6.921485E-2,3.725932E-2,-6.200892E-1,-1.8899255E-1,1.512037E-1,-3.0540071E-2,1.1204878E0,-2.5877666E-1,-8.200222E-2,1.560513E-1,-3.7394133E-1,-8.2611345E-2,7.3883444E-1,-1.9118293E-1,1.6733715E-1,2.147882E-1,-2.6104877E-2,-1.6278434E-1,3.1105557E-1],"categories":[],"categories_nodes":[],"categories_segments":[],"categories_sizes":[],"default_left":[0,0,0,0,0,0,0,0,0,0,0,0,0,0,0,0,0,0,0,0,0,0,0,0,0,0,0],"id":23,"left_children":[1,3,5,7,9,11,-1,-1,-1,13,15,-1,-1,17,19,-1,21,23,25,-1,-1,-1,-1,-1,-1,-1,-1],"loss_changes":[5.510176E0,3.9917731E0,9.260277E0,4.415002E-1,3.533603E0,1.738396E0,0E0,0E0,0E0,4.6774244E0,1.1557789E0,0E0,0E0,3.933139E0,7.7054095E0,0E0,1.7854458E0,5.4908247E0,5.6989107E0,0E0,0E0,0E0,0E0,0E0,0E0,0E0,0E0],"parents":[2147483647,0,0,1,1,2,2,3,3,4,4,5,5,9,9,10,10,13,13,14,14,16,16,17,17,18,18],"right_children":[2,4,6,8,10,12,-1,-1,-1,14,16,-1,-1,18,20,-1,22,24,26,-1,-1,-1,-1,-1,-1,-1,-1],"split_conditions":[4.2054124E0,-4.1305342E-1,4.7313502E-1,4.6162978E-1,1.278389E0,-2.2680911E-1,7.808232E-1,-3.1295997E-1,-6.921485E-2,1.0860246E0,4.877368E-1,-1.8899255E-1,1.512037E-1,5.375573E-1,5.9845936E-1,-2.5877666E-1,5.847102E-1,-2.3914425E-1,3.6185548E0,-8.2611345E-2,7.3883444E-1,-1.9118293E-1,1.6733715E-1,2.147882E-1,-2.6104877E-2,-1.6278434E-1,3.1105557E-1],"split_indices":[2,28,22,23,3,26,0,0,0,3,11,0,0,16,7,0,22,24,5,0,0,0,0,0,0,0,0],"split_type":[0,0,0,0,0,0,0,0,0,0,0,0,0,0,0,0,0,0,0,0,0,0,0,0,0,0,0],"sum_hessian":[8.044384E1,7.5974205E1,4.4696417E0,5.3520904E0,7.062211E1,3.4199708E0,1.0496709E0,3.7690363E0,1.5830544E0,6.2222534E1,8.399578E0,1.6687614E0,1.7512093E0,5.947198E1,2.7505517E0,5.3744206E0,3.0251575E0,3.8887527E1,2.0584452E1,1.7380224E0,1.0125293E0,1.6216581E0,1.4034994E0,1.1182643E1,2.7704885E1,1.8935879E1,1.648573E0],"tree_param":{"num_deleted":"0","num_feature":"30","num_nodes":"27","size_leaf_vector":"1"}},{"base_weights":[-3.4726758E-2,4.3872288E-1,-1.5607825E-1,1.0729613E0,-2.9688126E-1,-5.355087E-2,-8.0224335E-1,2.6339273E0,-2.2138903E-2,8.275719E-2,-4.3938717E-1,7.445582E-2,-4.638064E-1,9.6452E-2,-3.0728683E-1,8.580148E-2,1.103351E0,2.1198207E-1,-3.5954013E-1,-2.5423E-1,1.6241345E-1,4.7499928E-1,-1.6908221E-1,2.2689158E-1,-6.519902E-1,-2.265988E-1,7.536107E-2,-7.1578133E-1,1.317133E-1,8.845231E-1,-5.411256E-1,-7.4563E-1,2.0920764E-1,9.4417624E-2,-8.2878685E-1,-3.059404E-1,-4.3661115E-3,5.764137E-1,2.0098142E-2,1.4668147E-1,-2.6559952E-1,-2.803215E-1,-1.302513E-2,-2.4343124E-1,1.8217263E-1,-2.7428687E-1,-1.760529E-3],"categories":[],"categories_nodes":[],"categories_segments":[],"categories_sizes":[],"default_left":[0,0,0,0,0,0,0,0,0,0,0,0,0,0,0,0,0,0,0,0,0,0,0,0,0,0,0,0,0,0,0,0,0,0,0,0,0,0,0,0,0,0,0,0,0,0,0],"id":24,"left_children":[1,3,5,7,9,11,13,15,17,19,-1,21,23,-1,-1,-1,-1,-1,25,27,-1,29,31,-1,33,-1,-1,35,-1,37,39,41,43,-1,45,-1,-1,-1,-1,-1,-1,-1,-1,-1,-1,-1,-1],"loss_changes":[4.621434E0,7.983979E0,4.1847873E0,1.5510859E1,3.8408515E0,2.9831681E0,2.492062E0,8.103672E0,1.8041451E0,1.262509E0,0E0,4.33893E0,3.5907397E0,0E0,0E0,0E0,0E0,0E0,1.3915863E0,1.8745008E0,0E0,7.4570484E0,6.2381907E0,0E0,2.3503108E0,0E0,0E0,6.902541E-1,0E0,1.03248205E1,2.3608184E0,1.4530411E0,7.6506996E0,0E0,7.412081E-1,0E0,0E0,0E0,0E0,0E0,0E0,0E0,0E0,0E0,0E0,0E0,0E0],"parents":[2147483647,0,0,1,1,2,2,3,3,4,4,5,5,6,6,7,7,8,8,9,9,11,11,12,12,18,18,19,19,21,21,22,22,24,24,27,27,29,29,30,30,31,31,32,32,34,34],"right_children":[2,4,6,8,10,12,14,16,18,20,-1,22,24,-1,-1,-1,-1,-1,26,28,-1,30,32,-1,34,-1,-1,36,-1,38,40,42,44,-1,46,-1,-1,-1,-1,-1,-1,-1,-1,-1,-1,-1,-1],"split_conditions":[-1.5235084E0,4.2044792E-1,1.2637937E0,-2.2287238E0,1.11102E5,3.4096313E-1,-1.5383966E0,-1.782767E-1,-1.7860076E0,-1.0941798E-1,-4.3938717E-1,7.7429E4,-6.1036944E-1,9.6452E-2,-3.0728683E-1,8.580148E-2,1.103351E0,2.1198207E-1,7.278967E-1,9.575E1,1.6241345E-1,6.290028E-2,1.28839E5,2.2689158E-1,-9.007865E-1,-2.265988E-1,7.536107E-2,-2.646796E0,1.317133E-1,-4.1267538E-1,-4.1468656E-1,3.7436264E0,-7.697316E-1,9.4417624E-2,6.932495E-1,-3.059404E-1,-4.3661115E-3,5.764137E-1,2.0098142E-2,1.4668147E-1,-2.6559952E-1,-2.803215E-1,-1.302513E-2,-2.4343124E-1,1.8217263E-1,-2.7428687E-1,-1.760529E-3],"split_indices":[7,27,6,10,0,14,15,20,14,26,0,0,26,0,0,0,0,0,20,29,0,27,0,0,8,0,0,1,0,12,11,4,13,0,16,0,0,0,0,0,0,0,0,0,0,0,0],"split_type":[0,0,0,0,0,0,0,0,0,0,0,0,0,0,0,0,0,0,0,0,0,0,0,0,0,0,0,0,0,0,0,0,0,0,0,0,0,0,0,0,0,0,0,0,0,0,0],"sum_hessian":[7.824554E1,1.54301E1,6.2815437E1,8.039675E0,7.3904257E0,5.5147953E1,7.667482E0,2.735407E0,5.3042674E0,6.278415E0,1.1120108E0,4.265682E1,1.24911375E1,1.191171E0,6.4763107E0,1.2339737E0,1.5014334E0,1.3323311E0,3.9719362E0,3.8760333E0,2.402382E0,1.5769893E1,2.6886925E1,1.2657206E0,1.1225417E1,2.266443E0,1.7054932E0,2.3074024E0,1.5686309E0,1.13322315E1,4.4376607E0,1.026741E1,1.6619514E1,1.6149259E0,9.610492E0,1.2926573E0,1.0147451E0,4.4006944E0,6.9315376E0,1.0061618E0,3.4314988E0,7.8314376E0,2.4359725E0,4.3714848E0,1.224803E1,8.605348E0,1.0051438E0],"tree_param":{"num_deleted":"0","num_feature":"30","num_nodes":"47","size_leaf_vector":"1"}},{"base_weights":[-3.743603E-2,3.3569265E-2,-7.1266645E-1,-6.484347E-2,8.786879E-1,-1.0864313E0,7.844196E-2,2.6873436E-2,-8.7049526E-1,1.2068734E0,-1.3349445E-1,-6.1072808E-2,-1.334144E0,-8.617623E-2,1.3766782E0,3.812023E-2,-1.4331435E0,1.5116408E0,3.8890637E-2,-1.6791219E-1,-4.947965E-1,8.9157924E-2,-3.9788508E-1,6.704743E-1,-3.5744645E-2,-9.3563706E-2,1.0987029E-1,-1.3518985E-1,-6.453582E-1,5.6029284E-1,1.01585515E-1,8.246957E-2,-1.2932098E-1,1.5988469E-1,-1.7879675E-1],"categories":[],"categories_nodes":[],"categories_segments":[],"categories_sizes":[],"default_left":[0,0,0,0,0,0,0,0,0,0,0,0,0,0,0,0,0,0,0,0,0,0,0,0,0,0,0,0,0,0,0,0,0,0,0],"id":25,"left_children":[1,3,5,7,9,11,-1,13,15,17,-1,-1,19,21,23,25,27,29,-1,-1,-1,31,33,-1,-1,-1,-1,-1,-1,-1,-1,-1,-1,-1,-1],"loss_changes":[3.696539E0,5.9011183E0,2.9542453E0,4.742816E0,3.750688E0,9.299202E-1,0E0,9.016678E0,3.4071832E0,1.8386803E0,0E0,0E0,8.0105305E-2,3.0275333E0,6.1270084E0,5.140878E-1,1.9060774E0,1.3457012E0,0E0,0E0,0E0,3.5830483E0,3.9856765E0,0E0,0E0,0E0,0E0,0E0,0E0,0E0,0E0,0E0,0E0,0E0,0E0],"parents":[2147483647,0,0,1,1,2,2,3,3,4,4,5,5,7,7,8,8,9,9,12,12,13,13,14,14,15,15,16,16,17,17,21,21,22,22],"right_children":[2,4,6,8,10,12,-1,14,16,18,-1,-1,20,22,24,26,28,30,-1,-1,-1,32,34,-1,-1,-1,-1,-1,-1,-1,-1,-1,-1,-1,-1],"split_conditions":[1.2624862E0,4.758584E0,8.3834136E-1,7.774827E-1,1.5294268E0,4.1495E4,7.844196E-2,2.2127392E0,-3.7642572E0,1.3431631E0,-1.3349445E-1,-6.1072808E-2,4.8544747E-1,1.8476428E-2,2.3071471E-1,4.1495E4,2.6998997E0,-1.4653285E-1,3.8890637E-2,-1.6791219E-1,-4.947965E-1,2.8798145E-1,-1.4625945E0,6.704743E-1,-3.5744645E-2,-9.3563706E-2,1.0987029E-1,-1.3518985E-1,-6.453582E-1,5.6029284E-1,1.01585515E-1,8.246957E-2,-1.2932098E-1,1.5988469E-1,-1.7879675E-1],"split_indices":[13,4,1,8,17,0,0,11,3,21,0,0,25,26,7,0,11,25,0,0,0,12,15,0,0,0,0,0,0,0,0,0,0,0,0],"split_type":[0,0,0,0,0,0,0,0,0,0,0,0,0,0,0,0,0,0,0,0,0,0,0,0,0,0,0,0,0,0,0,0,0,0,0],"sum_hessian":[7.560069E1,6.926705E1,6.3336396E0,6.2869293E1,6.397757E0,4.4940557E0,1.8395838E0,5.731149E1,5.557803E0,5.1973763E0,1.2003806E0,1.3838384E0,3.1102173E0,5.3746258E1,3.5652325E0,2.4819589E0,3.0758443E0,3.7368944E0,1.460482E0,1.7025803E0,1.407637E0,3.4854694E1,1.8891563E1,1.9514703E0,1.6137623E0,1.2248702E0,1.2570887E0,1.9859881E0,1.0898561E0,2.4125452E0,1.3243492E0,2.6031916E1,8.82278E0,3.018457E0,1.5873106E1],"tree_param":{"num_deleted":"0","num_feature":"30","num_nodes":"35","size_leaf_vector":"1"}},{"base_weights":[-3.6640715E-2,-5.8812726E-1,4.466736E-2,2.1426831E-1,-8.464903E-1,5.33812E-1,-7.168997E-2,3.870237E-2,-3.1156638E-1,1.6114721E0,-3.5717604E-1,3.2023582E-1,-2.6822677E-1,5.204294E-2,2.465002E0,-4.9090314E-1,1.800257E-1,-5.8768157E-2,1.0548434E0,-4.7764074E-2,-6.802386E-1,2.0574003E-1,-1.809181E-1,1.0042995E0,2.6759946E-1,5.931182E-1,-4.0827096E-1,4.9724457E-1,-7.064156E-1,-6.7354485E-2,1.5231158E0,4.8210084E-1,-3.75344E-1,5.5179554E-1,-2.92275E-1,3.4157287E-2,2.4052517E-1,-2.1502705E-1,4.1961204E-2,-9.099584E-2,3.4141207E-1,-2.4986249E-1,-2.2537692E-3,6.594329E-1,5.1399957E-2,2.3049961E-1,-1.9544083E-1,1.683687E-1,-1.892575E-1,3.0474877E-1,-5.2242864E-2],"categories":[],"categories_nodes":[],"categories_segments":[],"categories_sizes":[],"default_left":[0,0,0,0,0,0,0,0,0,0,0,0,0,0,0,0,0,0,0,0,0,0,0,0,0,0,0,0,0,0,0,0,0,0,0,0,0,0,0,0,0,0,0,0,0,0,0,0,0,0,0],"id":26,"left_children":[1,3,5,-1,7,9,11,-1,-1,13,15,17,19,21,23,-1,25,27,29,31,33,-1,-1,-1,-1,35,37,39,41,-1,43,45,47,49,-1,-1,-1,-1,-1,-1,-1,-1,-1,-1,-1,-1,-1,-1,-1,-1,-1],"loss_changes":[3.3653674E0,3.8478575E0,3.7848842E0,0E0,1.7266812E0,1.2835449E1,4.24997E0,0E0,0E0,7.8048697E0,5.660061E0,5.2157354E0,3.2873366E0,1.713022E0,2.3320732E0,0E0,1.7974073E0,5.0894823E0,4.1477737E0,4.5002003E0,5.1249986E0,0E0,0E0,0E0,0E0,3.2540846E-1,6.46813E-1,4.2782326E0,5.674608E-1,0E0,3.9839306E0,3.727201E0,4.1685534E0,1.2138705E0,0E0,0E0,0E0,0E0,0E0,0E0,0E0,0E0,0E0,0E0,0E0,0E0,0E0,0E0,0E0,0E0,0E0],"parents":[2147483647,0,0,1,1,2,2,4,4,5,5,6,6,9,9,10,10,11,11,12,12,13,13,14,14,16,16,17,17,18,18,19,19,20,20,25,25,26,26,27,27,28,28,30,30,31,31,32,32,33,33],"right_children":[2,4,6,-1,8,10,12,-1,-1,14,16,18,20,22,24,-1,26,28,30,32,34,-1,-1,-1,-1,36,38,40,42,-1,44,46,48,50,-1,-1,-1,-1,-1,-1,-1,-1,-1,-1,-1,-1,-1,-1,-1,-1,-1],"split_conditions":[-1.6944214E0,-1.317062E0,-2.2287238E0,2.1426831E-1,2.255E1,5.8229065E-1,1.6239432E-1,3.870237E-2,-3.1156638E-1,1.8931733E0,2.540236E0,4.057647E-1,-2.7601734E-2,-1.7860076E0,1.1294156E-2,-4.9090314E-1,4.2375124E-1,2.068173E-2,2.0428479E-1,7.7429E4,-1.0696722E0,2.0574003E-1,-1.809181E-1,1.0042995E0,2.6759946E-1,-5.095508E-1,-1.9773504E-1,3.517226E-2,2.029208E-2,-6.7354485E-2,4.905345E-1,5.745889E-1,-1.4977707E0,3.1122586E-1,-2.92275E-1,3.4157287E-2,2.4052517E-1,-2.1502705E-1,4.1961204E-2,-9.099584E-2,3.4141207E-1,-2.4986249E-1,-2.2537692E-3,6.594329E-1,5.1399957E-2,2.3049961E-1,-1.9544083E-1,1.683687E-1,-1.892575E-1,3.0474877E-1,-5.2242864E-2],"split_indices":[2,13,10,0,29,8,2,0,0,11,4,19,20,14,26,0,28,22,22,0,7,0,0,0,0,22,26,28,2,0,18,6,9,17,0,0,0,0,0,0,0,0,0,0,0,0,0,0,0,0,0],"split_type":[0,0,0,0,0,0,0,0,0,0,0,0,0,0,0,0,0,0,0,0,0,0,0,0,0,0,0,0,0,0,0,0,0,0,0,0,0,0,0,0,0,0,0,0,0,0,0,0,0,0,0],"sum_hessian":[7.3466415E1,8.638812E0,6.482761E1,1.1379924E0,7.5008197E0,1.1768274E1,5.3059334E1,1.2878928E0,6.212927E0,4.9602094E0,6.808065E0,1.7510736E1,3.5548595E1,2.129858E0,2.8303514E0,1.408393E0,5.3996716E0,1.2158062E1,5.3526735E0,2.388431E1,1.1664288E1,1.0587493E0,1.0711086E0,1.0903322E0,1.7400193E0,3.1673872E0,2.2322845E0,6.666783E0,5.4912796E0,1.5737115E0,3.778962E0,8.944598E0,1.4939713E1,2.0783455E0,9.585941E0,1.4294512E0,1.737936E0,1.2315654E0,1.0007191E0,3.1980367E0,3.468746E0,4.4876046E0,1.0036749E0,2.1028507E0,1.6761112E0,7.3986177E0,1.5459799E0,2.9457533E0,1.1993958E1,1.0242761E0,1.0540694E0],"tree_param":{"num_deleted":"0","num_feature":"30","num_nodes":"51","size_leaf_vector":"1"}},{"base_weights":[-2.7532501E-2,-3.669768E-1,9.604385E-3,-6.2269336E-1,8.196216E-2,-3.0732384E-1,1.3327879E-1,6.4833957E-1,-3.9966308E-2,-1.8690088E-1,2.9165703E-1,1.7584707E0,5.2575977E-4,-6.527191E-1,5.267846E-2,8.7930244E-1,2.6828682E-2,-4.3113667E-1,7.077014E-1,-2.929621E-1,5.9811816E-2,5.5530596E-1,-1.2053963E-1,4.552244E-2,-2.8924003E-1,3.4085146E-1,-5.1144708E-2,-7.444169E-2,1.077401E-1,4.390302E-1,3.0835615E-2,-2.7463874E-1,-4.092275E-3],"categories":[],"categories_nodes":[],"categories_segments":[],"categories_sizes":[],"default_left":[0,0,0,0,0,0,0,0,0,0,0,0,0,0,0,0,0,0,0,0,0,0,0,0,0,0,0,0,0,0,0,0,0],"id":27,"left_children":[1,-1,3,5,7,-1,9,11,13,-1,-1,15,17,19,21,-1,-1,23,25,-1,27,29,31,-1,-1,-1,-1,-1,-1,-1,-1,-1,-1],"loss_changes":[3.152228E0,0E0,3.2346532E0,2.3418107E0,4.3988457E0,0E0,2.76578E0,8.107796E0,3.0458179E0,0E0,0E0,7.868723E0,2.784012E0,1.6831844E0,4.1594715E0,0E0,0E0,1.9059451E0,1.4943234E0,0E0,3.7878752E-1,4.8737736E0,3.0279663E0,0E0,0E0,0E0,0E0,0E0,0E0,0E0,0E0,0E0,0E0],"parents":[2147483647,0,0,2,2,3,3,4,4,6,6,7,7,8,8,11,11,12,12,13,13,14,14,17,17,18,18,20,20,21,21,22,22],"right_children":[2,-1,4,6,8,-1,10,12,14,-1,-1,16,18,20,22,-1,-1,24,26,-1,28,30,32,-1,-1,-1,-1,-1,-1,-1,-1,-1,-1],"split_conditions":[5.764E3,-3.669768E-1,-2.9504853E-1,7.030345E-2,-1.6441249E0,-3.0732384E-1,1.695929E-2,7.4431114E-2,-2.872637E0,-1.8690088E-1,2.9165703E-1,3.9E1,9.2394955E-2,2.421475E0,-4.4069707E-1,8.7930244E-1,2.6828682E-2,5.1224E4,7.247372E-2,-2.929621E-1,1.36997E5,-2.5254312E0,-3.750454E-1,4.552244E-2,-2.8924003E-1,3.4085146E-1,-5.1144708E-2,-7.444169E-2,1.077401E-1,4.390302E-1,3.0835615E-2,-2.7463874E-1,-4.092275E-3],"split_indices":[0,0,4,23,16,0,27,28,1,0,0,29,23,5,8,0,0,0,13,0,0,3,23,0,0,0,0,0,0,0,0,0,0],"split_type":[0,0,0,0,0,0,0,0,0,0,0,0,0,0,0,0,0,0,0,0,0,0,0,0,0,0,0,0,0,0,0,0,0],"sum_hessian":[6.972285E1,1.1381422E0,6.858471E1,6.261643E0,6.2323063E1,3.856975E0,2.4046679E0,1.0275293E1,5.204777E1,1.399963E0,1.0047048E0,3.154718E0,7.1205754E0,6.041812E0,4.600596E1,1.4088606E0,1.7458572E0,4.663996E0,2.4565792E0,3.8992233E0,2.1425884E0,1.1225902E1,3.4780056E1,2.5694191E0,2.094577E0,1.4535909E0,1.0029883E0,1.140355E0,1.0022335E0,2.9905138E0,8.235388E0,3.2261145E0,3.1553944E1],"tree_param":{"num_deleted":"0","num_feature":"30","num_nodes":"33","size_leaf_vector":"1"}},{"base_weights":[-2.403067E-2,4.9960747E-2,-5.8592796E-1,2.35525E-1,-3.290058E-1,-7.609184E-1,6.0943414E-2,5.7801926E-1,-4.879344E-2,-7.464269E-1,-2.0389198E-3,-3.537448E-2,-2.5594482E-1,1.8363569E0,1.0918955E-1,6.67105E-1,-3.2735607E-1,-1.7745724E-1,-3.6424142E-1,-5.2083445E-1,7.446244E-1,8.6904876E-2,9.109387E-1,5.797278E-1,-6.522977E-1,-2.0008682E-1,1.2820485E0,-2.619588E-1,-6.5952376E-3,2.6728252E-1,-6.3983536E-1,-2.570486E-1,2.0558116E-1,-1.6794463E-3,5.227605E-1,-1.5791395E-1,2.0110692E-1,-1.6248973E-1,2.6473418E-1,-4.8750815E-1,2.0633161E-2,4.2212635E-2,5.614282E-1,2.8809494E-1,-1.4935204E-1,-2.7766728E-1,-9.524014E-3,-1.72928E-1,2.4928235E-1,-2.04396E-1,2.1615487E-1],"categories":[],"categories_nodes":[],"categories_segments":[],"categories_sizes":[],"default_left":[0,0,0,0,0,0,0,0,0,0,0,0,0,0,0,0,0,0,0,0,0,0,0,0,0,0,0,0,0,0,0,0,0,0,0,0,0,0,0,0,0,0,0,0,0,0,0,0,0,0,0],"id":28,"left_children":[1,3,5,7,9,11,-1,13,15,17,19,-1,-1,21,23,25,27,29,-1,31,33,35,-1,37,39,-1,41,-1,43,-1,45,-1,47,49,-1,-1,-1,-1,-1,-1,-1,-1,-1,-1,-1,-1,-1,-1,-1,-1,-1],"loss_changes":[2.8956861E0,4.426504E0,1.27315E0,4.1276145E0,2.829892E0,3.0511737E-1,0E0,1.1110711E1,4.9895353E0,2.2087288E0,5.282565E0,0E0,0E0,1.0530342E1,5.764272E0,6.622998E0,3.127192E0,3.178934E0,0E0,2.1394749E0,4.1674614E0,1.4697402E0,0E0,3.8115783E0,4.468666E0,0E0,3.204155E0,0E0,6.3101926E0,0E0,7.121453E-1,0E0,2.1174865E0,2.5515718E0,0E0,0E0,0E0,0E0,0E0,0E0,0E0,0E0,0E0,0E0,0E0,0E0,0E0,0E0,0E0,0E0,0E0],"parents":[2147483647,0,0,1,1,2,2,3,3,4,4,5,5,7,7,8,8,9,9,10,10,13,13,14,14,15,15,16,16,17,17,19,19,20,20,21,21,23,23,24,24,26,26,28,28,30,30,32,32,33,33],"right_children":[2,4,6,8,10,12,-1,14,16,18,20,-1,-1,22,24,26,28,30,-1,32,34,36,-1,38,40,-1,42,-1,44,-1,46,-1,48,50,-1,-1,-1,-1,-1,-1,-1,-1,-1,-1,-1,-1,-1,-1,-1,-1,-1],"split_conditions":[1.278389E0,5.375573E-1,5.171946E-1,-5.5810237E-1,-1.607546E-1,-1.2944946E0,6.0943414E-2,-6.261004E-3,-8.776505E-1,-1.266589E-2,1.3157641E0,-3.537448E-2,-2.5594482E-1,4.924999E-1,5.390341E-1,1.2349217E-1,-6.261004E-3,-3.9853367E-1,-3.6424142E-1,3.388214E-2,-4.2415723E-1,9.841355E-1,9.109387E-1,5.311386E-2,2.540236E0,-2.0008682E-1,1.22551E5,-2.619588E-1,3.612331E-2,2.6728252E-1,-2.7111623E-1,-2.570486E-1,1.2038716E0,2.1793187E0,5.227605E-1,-1.5791395E-1,2.0110692E-1,-1.6248973E-1,2.6473418E-1,-4.8750815E-1,2.0633161E-2,4.2212635E-2,5.614282E-1,2.8809494E-1,-1.4935204E-1,-2.7766728E-1,-9.524014E-3,-1.72928E-1,2.4928235E-1,-2.04396E-1,2.1615487E-1],"split_indices":[3,16,14,12,21,13,0,28,10,15,16,0,0,22,20,9,28,8,0,27,12,2,0,28,4,0,0,0,28,0,24,0,4,17,0,0,0,0,0,0,0,0,0,0,0,0,0,0,0,0,0],"split_type":[0,0,0,0,0,0,0,0,0,0,0,0,0,0,0,0,0,0,0,0,0,0,0,0,0,0,0,0,0,0,0,0,0,0,0,0,0,0,0,0,0,0,0,0,0,0,0,0,0,0,0],"sum_hessian":[6.7944626E1,6.0843727E1,7.1009007E0,4.1098164E1,1.9745564E1,5.8411956E0,1.259705E0,1.8173315E1,2.2924849E1,8.109596E0,1.1635967E1,1.0185665E0,4.8226295E0,4.1412683E0,1.4032047E1,6.0308685E0,1.689398E1,4.2810836E0,3.8285127E0,7.0440683E0,4.591899E0,2.1213243E0,2.019944E0,8.820421E0,5.211626E0,1.8761529E0,4.1547155E0,5.61561E0,1.127837E1,1.0131559E0,3.2679276E0,4.6935825E0,2.350486E0,3.1983082E0,1.3935906E0,1.0819106E0,1.0394137E0,1.7072077E0,7.1132135E0,1.6849766E0,3.5266495E0,1.8366874E0,2.3180282E0,3.4779325E0,7.800437E0,1.8680918E0,1.3998357E0,1.0792013E0,1.2712847E0,1.676858E0,1.5214503E0],"tree_param":{"num_deleted":"0","num_feature":"30","num_nodes":"51","size_leaf_vector":"1"}},{"base_weights":[-3.8396418E-2,2.5630504E-2,-7.067555E-1,8.964789E-1,-9.538324E-2,-1.14360474E-1,-4.708599E-1,1.4748611E0,-2.0886536E-1,-2.7852586E-1,-2.8044378E-2,-4.4242775E-1,1.3948406E-1,2.6481183E0,1.378223E-1,-4.0780932E-1,9.0093546E-2,-2.3939505E-1,5.9436828E-2,6.856678E-2,1.1479363E0,-9.856455E-2,1.488699E-1,3.3245835E-1,-5.844694E-1,1.9245338E-1,-5.903155E-1,2.5314102E-1,-1.02833405E-1,-2.4356732E-1,5.7048034E-2,1.3694027E-1,-2.2943906E-2,-2.3621315E-1,2.4297075E-2],"categories":[],"categories_nodes":[],"categories_segments":[],"categories_sizes":[],"default_left":[0,0,0,0,0,0,0,0,0,0,0,0,0,0,0,0,0,0,0,0,0,0,0,0,0,0,0,0,0,0,0,0,0,0,0],"id":29,"left_children":[1,3,5,7,9,11,-1,13,-1,-1,15,17,-1,19,21,23,25,-1,-1,-1,-1,-1,-1,27,29,31,33,-1,-1,-1,-1,-1,-1,-1,-1],"loss_changes":[2.8549182E0,6.562553E0,2.8004246E0,8.023072E0,3.0517201E0,1.0676702E0,0E0,8.878082E0,0E0,0E0,2.3604558E0,9.342796E-1,0E0,7.916445E0,7.996849E-1,1.8251035E0,2.9220202E0,0E0,0E0,0E0,0E0,0E0,0E0,1.3388789E0,1.9918432E0,2.5771358E0,7.9385126E-1,0E0,0E0,0E0,0E0,0E0,0E0,0E0,0E0],"parents":[2147483647,0,0,1,1,2,2,3,3,4,4,5,5,7,7,10,10,11,11,13,13,14,14,15,15,16,16,23,23,24,24,25,25,26,26],"right_children":[2,4,6,8,10,12,-1,14,-1,-1,16,18,-1,20,22,24,26,-1,-1,-1,-1,-1,-1,28,30,32,34,-1,-1,-1,-1,-1,-1,-1,-1],"split_conditions":[7.212482E-1,-2.2287238E0,-1.251297E0,-2.1880152E0,-1.0552279E0,9.995E1,-4.708599E-1,5.8229065E-1,-2.0886536E-1,-2.7852586E-1,-8.6119163E-1,1.0766919E0,1.3948406E-1,-2.163087E0,-2.0451288E-1,-5.021292E-1,3.5018912E-1,-2.3939505E-1,5.9436828E-2,6.856678E-2,1.1479363E0,-9.856455E-2,1.488699E-1,8.5297215E-1,4.588769E-1,8.9492E4,1.0260091E0,2.5314102E-1,-1.02833405E-1,-2.4356732E-1,5.7048034E-2,1.3694027E-1,-2.2943906E-2,-2.3621315E-1,2.4297075E-2],"split_indices":[27,10,6,14,24,29,0,8,0,0,6,19,0,19,23,26,8,0,0,0,0,0,0,4,24,0,1,0,0,0,0,0,0,0,0],"split_type":[0,0,0,0,0,0,0,0,0,0,0,0,0,0,0,0,0,0,0,0,0,0,0,0,0,0,0,0,0,0,0,0,0,0,0],"sum_hessian":[6.5291336E1,6.0461E1,4.830342E0,6.5948143E0,5.3866184E1,3.5354211E0,1.2949206E0,4.89221E0,1.7026043E0,3.0722826E0,5.07939E1,2.4080186E0,1.1274025E0,2.0834181E0,2.808792E0,1.1470139E1,3.932376E1,1.3904386E0,1.0175799E0,1.0733652E0,1.0100528E0,1.2567732E0,1.5520188E0,2.0399833E0,9.430155E0,3.480491E1,4.518854E0,1.0188124E0,1.0211709E0,7.2527385E0,2.1774163E0,1.7211191E1,1.7593718E1,3.3597088E0,1.1591452E0],"tree_param":{"num_deleted":"0","num_feature":"30","num_nodes":"35","size_leaf_vector":"1"}},{"base_weights":[-3.2909717E-2,-3.3129254E-1,1.04517184E-1,3.7571958E-1,-4.9923038E-1,7.2695017E-1,-5.84665E-2,7.795417E-1,-1.22594945E-1,-7.0219165E-1,7.4047945E-2,2.3543964E-1,5.4496175E-1,2.4529546E-1,-3.9964184E-1,3.5797763E-1,7.905219E-3,-1.1504693E0,-4.3565065E-1,3.843257E-1,-1.3102558E-1,-4.0345037E-1,1.042883E0,-3.6367384E-1,7.105578E-1,-5.657508E-1,-1.9624233E-1,-1.4702235E0,-2.6021078E-2,1.4113829E-1,-6.029004E-1,2.2746086E-1,-5.2351873E-2,-2.1876326E-1,9.265578E-2,4.521891E-1,5.5949283E-3,-6.730536E-1,2.3769176E-1,1.1991785E0,-4.0826637E-1,9.245423E-2,-2.2955199E-1,-5.3897756E-1,-1.410292E-1,-2.1923114E-1,5.25749E-2,8.666153E-2,-2.572785E-1,6.6932607E-1,8.065018E-2,7.492888E-2,-2.1600042E-1,-2.2993313E-1,1.3400075E-1],"categories":[],"categories_nodes":[],"categories_segments":[],"categories_sizes":[],"default_left":[0,0,0,0,0,0,0,0,0,0,0,0,0,0,0,0,0,0,0,0,0,0,0,0,0,0,0,0,0,0,0,0,0,0,0,0,0,0,0,0,0,0,0,0,0,0,0,0,0,0,0,0,0,0,0],"id":30,"left_children":[1,3,5,7,9,11,13,15,-1,17,19,21,-1,23,25,-1,-1,27,29,31,-1,33,35,37,39,-1,41,43,-1,-1,45,-1,-1,-1,-1,-1,-1,47,-1,49,51,53,-1,-1,-1,-1,-1,-1,-1,-1,-1,-1,-1,-1,-1],"loss_changes":[2.6920688E0,2.6424816E0,4.620858E0,1.7562917E0,2.0458984E0,4.6276584E0,3.900557E0,1.0094328E0,0E0,1.0223846E0,1.021366E0,4.3692427E0,0E0,5.933372E0,4.9688845E0,0E0,0E0,1.2824154E0,1.7394155E0,9.434268E-1,0E0,1.384048E0,1.7128298E0,3.8723245E0,6.8819294E0,0E0,2.8057487E0,1.752944E-1,0E0,0E0,9.7857046E-1,0E0,0E0,0E0,0E0,0E0,0E0,1.65116E0,0E0,7.457391E0,1.0619705E0,3.9744573E0,0E0,0E0,0E0,0E0,0E0,0E0,0E0,0E0,0E0,0E0,0E0,0E0,0E0],"parents":[2147483647,0,0,1,1,2,2,3,3,4,4,5,5,6,6,7,7,9,9,10,10,11,11,13,13,14,14,17,17,18,18,19,19,21,21,22,22,23,23,24,24,26,26,27,27,30,30,37,37,39,39,40,40,41,41],"right_children":[2,4,6,8,10,12,14,16,-1,18,20,22,-1,24,26,-1,-1,28,30,32,-1,34,36,38,40,-1,42,44,-1,-1,46,-1,-1,-1,-1,-1,-1,48,-1,50,52,54,-1,-1,-1,-1,-1,-1,-1,-1,-1,-1,-1,-1,-1],"split_conditions":[-3.6918673E-1,-5.550525E-1,-1.1755707E-1,-4.259361E-1,2.8489372E-1,4.781668E-1,1.03307E5,-5.736439E-1,-1.22594945E-1,2.99E0,-3.2159703E0,9.841355E-1,5.4496175E-1,-2.225928E-1,-1.6121876E0,3.5797763E-1,7.905219E-3,1.7011008E-1,4.99E0,-7.557628E-1,-1.3102558E-1,3.5232735E-1,-5.531075E-1,3.4E2,8.808735E-1,-5.657508E-1,-1.9719893E-2,-1.6039051E0,-2.6021078E-2,1.4113829E-1,1.1096882E0,2.2746086E-1,-5.2351873E-2,-2.1876326E-1,9.265578E-2,4.521891E-1,5.5949283E-3,-2.677664E0,2.3769176E-1,-8.0741286E-1,-1.4822475E0,1.28839E5,-2.2955199E-1,-5.3897756E-1,-1.410292E-1,-2.1923114E-1,5.25749E-2,8.666153E-2,-2.572785E-1,6.6932607E-1,8.065018E-2,7.492888E-2,-2.1600042E-1,-2.2993313E-1,1.3400075E-1],"split_indices":[22,20,22,14,21,12,0,19,0,29,3,2,0,26,5,0,0,26,29,22,0,20,19,29,17,0,12,3,0,0,13,0,0,0,0,0,0,12,0,14,14,0,0,0,0,0,0,0,0,0,0,0,0,0,0],"split_type":[0,0,0,0,0,0,0,0,0,0,0,0,0,0,0,0,0,0,0,0,0,0,0,0,0,0,0,0,0,0,0,0,0,0,0,0,0,0,0,0,0,0,0,0,0,0,0,0,0,0,0,0,0,0,0],"sum_hessian":[6.3806477E1,1.96757E1,4.413078E1,3.5390747E0,1.6136625E1,8.439635E0,3.5691143E1,2.340338E0,1.1987368E0,1.1751351E1,4.385273E0,6.65408E0,1.7855557E0,1.9029474E1,1.6661669E1,1.1334685E0,1.2068695E0,3.1452572E0,8.606094E0,2.8821526E0,1.5031204E0,3.99409E0,2.6599898E0,8.336457E0,1.0693017E1,1.0100293E0,1.565164E1,2.1245027E0,1.0207546E0,1.0585029E0,7.5475917E0,1.513085E0,1.3690677E0,2.7243943E0,1.2696955E0,1.5056531E0,1.1543367E0,6.9059515E0,1.4305059E0,7.3926344E0,3.3003829E0,1.0938523E1,4.713116E0,1.0013651E0,1.1231375E0,6.5346656E0,1.0129259E0,1.0206168E0,5.8853345E0,2.8421185E0,4.5505157E0,1.1248269E0,2.1755557E0,2.8541117E0,8.084412E0],"tree_param":{"num_deleted":"0","num_feature":"30","num_nodes":"55","size_leaf_vector":"1"}},{"base_weights":[-4.2412307E-2,2.2604387E-2,-7.7892524E-1,8.2397676E-1,-8.6290434E-2,-4.658349E-2,-4.2223832E-1,1.2990733E0,-1.7585543E-1,-5.1255417E-1,2.8535537E-2,-1.1798544E-1,8.242537E-2,3.3562735E-1,8.6415035E-1,1.5646556E-1,-7.5461257E-1,1.1014498E-1,-6.4202636E-1,-2.1409667E-1,2.9937556E-1,-3.180754E-1,8.616687E-2,-3.866517E-1,2.4241568E-1,-3.1966556E-2,-2.2700354E-1,7.552946E-2,-1.6475959E-1,8.5677825E-2,-1.8350391E-1,1.463958E-1,-5.5517174E-2],"categories":[],"categories_nodes":[],"categories_segments":[],"categories_sizes":[],"default_left":[0,0,0,0,0,0,0,0,0,0,0,0,0,0,0,0,0,0,0,0,0,0,0,0,0,0,0,0,0,0,0,0,0],"id":31,"left_children":[1,3,5,7,9,11,-1,13,-1,15,17,-1,-1,19,-1,-1,21,23,25,27,-1,-1,-1,29,31,-1,-1,-1,-1,-1,-1,-1,-1],"loss_changes":[3.0362933E0,5.2108345E0,2.3011742E0,5.545507E0,2.5968814E0,4.878401E-1,0E0,7.6449375E0,0E0,3.209214E0,2.3969662E0,0E0,0E0,1.9045057E0,0E0,0E0,3.3370714E0,2.6400614E0,2.1151376E-1,6.62979E-1,0E0,0E0,0E0,1.4655306E0,3.3672934E0,0E0,0E0,0E0,0E0,0E0,0E0,0E0,0E0],"parents":[2147483647,0,0,1,1,2,2,3,3,4,4,5,5,7,7,9,9,10,10,13,13,16,16,17,17,18,18,19,19,23,23,24,24],"right_children":[2,4,6,8,10,12,-1,14,-1,16,18,-1,-1,20,-1,-1,22,24,26,28,-1,-1,-1,30,32,-1,-1,-1,-1,-1,-1,-1,-1],"split_conditions":[7.212482E-1,-2.2287238E0,5.1224E4,-2.1880152E0,-2.6789603E-1,-5.498268E-1,-4.2223832E-1,5.186875E-1,-1.7585543E-1,-1.5230986E0,1.1915644E0,-1.1798544E-1,8.242537E-2,-2.6788285E0,8.6415035E-1,1.5646556E-1,6.7719793E-1,-5.257239E-1,-1.050536E0,-6.185976E-1,2.9937556E-1,-3.180754E-1,8.616687E-2,4.5991E4,9.8893315E-1,-3.1966556E-2,-2.2700354E-1,7.552946E-2,-1.6475959E-1,8.5677825E-2,-1.8350391E-1,1.463958E-1,-5.5517174E-2],"split_indices":[27,10,0,14,23,13,0,22,0,19,9,0,0,10,0,0,21,22,7,18,0,0,0,0,17,0,0,0,0,0,0,0,0],"split_type":[0,0,0,0,0,0,0,0,0,0,0,0,0,0,0,0,0,0,0,0,0,0,0,0,0,0,0,0,0,0,0,0,0],"sum_hessian":[6.2039486E1,5.789779E1,4.141698E0,6.1407104E0,5.1757076E1,2.4089785E0,1.7327197E0,4.6521387E0,1.4885718E0,1.02484455E1,4.1508633E1,1.0510486E0,1.3579298E0,3.6442184E0,1.0079199E0,1.7248791E0,8.523566E0,3.7750072E1,3.7585578E0,2.3611324E0,1.2830862E0,6.5765553E0,1.9470115E0,7.5331326E0,3.0216942E1,1.0030923E0,2.7554655E0,1.0918815E0,1.2692509E0,1.8217443E0,5.711388E0,1.910191E1,1.1115031E1],"tree_param":{"num_deleted":"0","num_feature":"30","num_nodes":"33","size_leaf_vector":"1"}},{"base_weights":[-3.8711768E-2,3.0640036E-2,-7.578482E-1,4.9013588E-1,-9.1446206E-2,-1.1482301E0,1.4939925E-1,-1.3747932E-1,8.146651E-1,-2.4377726E-1,3.9158228E-1,7.103908E-3,-1.5100722E0,-3.8299504E-1,2.5392243E-1,-8.539909E-1,-9.776469E-2,6.9091934E-1,-1.717494E-1,-9.7078726E-2,-6.2109894E-1,4.5794797E-1,-1.759122E-1,-5.1066037E-2,-2.8313386E-1,3.940084E-1,-2.3471792E-1,-3.727427E-2,1.2534081E0,2.572703E-1,1.7087323E-3,3.2015997E-1,-1.0779703E-2,-1.7846029E-1,6.4104525E-3,2.65745E-1,-2.1157818E-1,5.5880513E-2,5.4383844E-1],"categories":[],"categories_nodes":[],"categories_segments":[],"categories_sizes":[],"default_left":[0,0,0,0,0,0,0,0,0,0,0,0,0,0,0,0,0,0,0,0,0,0,0,0,0,0,0,0,0,0,0,0,0,0,0,0,0,0,0],"id":32,"left_children":[1,3,5,7,9,11,-1,13,-1,15,17,-1,19,-1,21,23,25,27,-1,-1,-1,29,-1,-1,-1,31,33,35,37,-1,-1,-1,-1,-1,-1,-1,-1,-1,-1],"loss_changes":[3.1179693E0,3.2735713E0,3.2666128E0,1.7468039E1,3.503408E0,1.9421511E0,0E0,5.0052624E0,0E0,3.1087308E0,3.71088E0,0E0,1.6237268E0,0E0,1.7511669E0,2.5612164E-1,2.115637E0,3.8230329E0,0E0,0E0,0E0,1.3541962E0,0E0,0E0,0E0,2.0402687E0,2.2375371E0,3.701037E0,2.7846184E0,0E0,0E0,0E0,0E0,0E0,0E0,0E0,0E0,0E0,0E0],"parents":[2147483647,0,0,1,1,2,2,3,3,4,4,5,5,7,7,9,9,10,10,12,12,14,14,15,15,16,16,17,17,21,21,25,25,26,26,27,27,28,28],"right_children":[2,4,6,8,10,12,-1,14,-1,16,18,-1,20,-1,22,24,26,28,-1,-1,-1,30,-1,-1,-1,32,34,36,38,-1,-1,-1,-1,-1,-1,-1,-1,-1,-1],"split_conditions":[1.2624862E0,-2.6373317E0,2.5188464E-1,-3.6280148E0,1.066889E0,-1.1242591E0,1.4939925E-1,1.3913918E0,8.146651E-1,-4.0180394E-1,8.4152824E-1,7.103908E-3,4.8544747E-1,-3.8299504E-1,1.108041E0,-1.8707828E-1,-3.5456428E-1,1.1056194E-1,-1.717494E-1,-9.7078726E-2,-6.2109894E-1,5.571563E-1,-1.759122E-1,-5.1066037E-2,-2.8313386E-1,-7.137033E-1,5.7520635E-2,-6.2236164E-2,-5.4959434E-1,2.572703E-1,1.7087323E-3,3.2015997E-1,-1.0779703E-2,-1.7846029E-1,6.4104525E-3,2.65745E-1,-2.1157818E-1,5.5880513E-2,5.4383844E-1],"split_indices":[13,14,12,14,7,19,0,2,0,17,22,0,25,0,7,21,20,24,0,0,0,19,0,0,0,19,16,28,9,0,0,0,0,0,0,0,0,0,0],"split_type":[0,0,0,0,0,0,0,0,0,0,0,0,0,0,0,0,0,0,0,0,0,0,0,0,0,0,0,0,0,0,0,0,0,0,0,0,0,0,0],"sum_hessian":[6.1052086E1,5.6555412E1,4.496676E0,1.1239322E1,4.531609E1,3.4957173E0,1.0009584E0,9.498704E0,1.7406179E0,3.4827858E1,1.048823E1,1.0451887E0,2.4505286E0,1.8506546E0,7.648049E0,5.788383E0,2.9039476E1,8.219498E0,2.2687318E0,1.2919997E0,1.1585289E0,6.5199976E0,1.1280516E0,1.0079894E0,4.7803936E0,5.916715E0,2.312276E1,3.9890444E0,4.230453E0,2.9856224E0,3.5343752E0,1.7283313E0,4.1883836E0,9.059254E0,1.4063507E1,1.537824E0,2.4512205E0,1.9133501E0,2.3171031E0],"tree_param":{"num_deleted":"0","num_feature":"30","num_nodes":"39","size_leaf_vector":"1"}},{"base_weights":[-4.581285E-2,-5.360651E-1,4.7126755E-2,-1.5072956E0,8.072664E-3,9.571783E-1,-4.2084794E-2,-5.7372177E-1,-1.260631E-1,-2.3324622E-1,3.05461E-1,-1.06623836E-1,5.640851E-1,-5.1668715E-1,8.5254334E-2,2.1576917E-1,-7.169878E-2,1.1869979E-1,-9.1183084E-1,4.0193167E-1,-1.066772E-2,9.341439E-2,-1.179998E-1,-1.6200112E-1,2.8432643E-1,-7.494427E-2,-2.9787982E-1,-7.7464595E-2,3.365524E-1,-6.257186E-2,1.0617689E-1],"categories":[],"categories_nodes":[],"categories_segments":[],"categories_sizes":[],"default_left":[0,0,0,0,0,0,0,0,0,0,0,0,0,0,0,0,0,0,0,0,0,0,0,0,0,0,0,0,0,0,0],"id":33,"left_children":[1,3,5,7,9,11,13,-1,-1,-1,15,-1,-1,17,19,-1,21,23,25,-1,27,-1,-1,-1,-1,-1,-1,29,-1,-1,-1],"loss_changes":[2.8127608E0,5.2073345E0,4.290225E0,7.532511E-1,1.9417548E0,6.381933E0,2.9831429E0,0E0,0E0,0E0,9.894336E-1,0E0,0E0,2.7267823E0,4.731743E0,0E0,6.2189126E-1,3.1789005E0,1.03393555E-1,0E0,2.9168892E0,0E0,0E0,0E0,0E0,0E0,0E0,2.1247263E0,0E0,0E0,0E0],"parents":[2147483647,0,0,1,1,2,2,3,3,4,4,5,5,6,6,10,10,13,13,14,14,16,16,17,17,18,18,20,20,27,27],"right_children":[2,4,6,8,10,12,14,-1,-1,-1,16,-1,-1,18,20,-1,22,24,26,-1,28,-1,-1,-1,-1,-1,-1,30,-1,-1,-1],"split_conditions":[-1.7511642E0,1.8578162E0,-2.2287238E0,7.760304E-2,-4.3539098E-1,-3.0219264E-2,4.5386E4,-5.7372177E-1,-1.260631E-1,-2.3324622E-1,-2.7633877E0,-1.06623836E-1,5.640851E-1,-1.641865E-1,4.8625E4,2.1576917E-1,-6.0873974E-2,1.7294651E0,-1.0731747E0,4.0193167E-1,9.7445315E-1,9.341439E-2,-1.179998E-1,-1.6200112E-1,2.8432643E-1,-7.494427E-2,-2.9787982E-1,1.49583E5,3.365524E-1,-6.257186E-2,1.0617689E-1],"split_indices":[9,2,10,23,23,20,0,0,0,0,9,0,0,20,0,0,24,4,13,0,26,0,0,0,0,0,0,0,0,0,0],"split_type":[0,0,0,0,0,0,0,0,0,0,0,0,0,0,0,0,0,0,0,0,0,0,0,0,0,0,0,0,0,0,0],"sum_hessian":[6.017783E1,8.830333E0,5.13475E1,2.5351987E0,6.295134E0,3.7155612E0,4.763194E1,1.2938365E0,1.2413623E0,1.2853801E0,5.0097537E0,1.7880545E0,1.9275068E0,9.42959E0,3.8202347E1,1.9564414E0,3.0533123E0,3.8839087E0,5.5456815E0,1.792451E0,3.6409897E1,1.408091E0,1.6452214E0,2.3585987E0,1.5253102E0,1.0505474E0,4.495134E0,3.526171E1,1.1481832E0,2.7438921E1,7.8227916E0],"tree_param":{"num_deleted":"0","num_feature":"30","num_nodes":"31","size_leaf_vector":"1"}},{"base_weights":[-4.041684E-2,2.0346623E-2,-8.455853E-1,4.878103E-1,-6.917524E-2,-5.13032E-1,-3.892977E-2,-3.4567165E-1,9.458714E-1,4.8813343E-2,-7.389334E-1,1.8834285E-1,-1.8684767E-1,8.012616E-1,2.1803829E-1,-4.3074334E-1,1.4263572E-1,-2.4609442E-3,-2.576992E-1,-4.2331535E-1,6.478088E-1,2.639563E-1,-2.3713578E-1,6.289361E-1,1.2321097E-2,-2.3218441E-1,3.874675E-2,6.8904586E-2,2.8919953E-1,-9.6066795E-2,2.1346281E-1,3.3616728E-1,-1.9199438E-1,2.144703E-1,-5.396845E-2],"categories":[],"categories_nodes":[],"categories_segments":[],"categories_sizes":[],"default_left":[0,0,0,0,0,0,0,0,0,0,0,0,0,0,0,0,0,0,0,0,0,0,0,0,0,0,0,0,0,0,0,0,0,0,0],"id":34,"left_children":[1,3,5,7,9,-1,11,-1,13,15,17,-1,-1,-1,19,21,23,-1,-1,25,27,29,-1,31,33,-1,-1,-1,-1,-1,-1,-1,-1,-1,-1],"loss_changes":[2.9578395E0,2.4134026E0,2.8910785E0,8.04916E0,3.8766527E0,0E0,1.6435289E0,0E0,9.19862E0,1.962805E0,6.3703823E-1,0E0,0E0,0E0,2.0845013E0,1.9987643E0,2.2796886E0,0E0,0E0,7.275856E-1,3.5074043E-1,1.0628638E0,0E0,5.46344E0,4.1107397E0,0E0,0E0,0E0,0E0,0E0,0E0,0E0,0E0,0E0,0E0],"parents":[2147483647,0,0,1,1,2,2,3,3,4,4,6,6,8,8,9,9,10,10,14,14,15,15,16,16,19,19,20,20,21,21,23,23,24,24],"right_children":[2,4,6,8,10,-1,12,-1,14,16,18,-1,-1,-1,20,22,24,-1,-1,26,28,30,-1,32,34,-1,-1,-1,-1,-1,-1,-1,-1,-1,-1],"split_conditions":[9.3592054E-1,-3.0454953E0,-1.0725457E-1,1.3913918E0,1.3913918E0,-5.13032E-1,-2.3789372E0,-3.4567165E-1,2.4508688E0,-9.929503E-1,-1.3896776E0,1.8834285E-1,-1.8684767E-1,8.012616E-1,4.133976E0,-1.5230986E0,-5.5810237E-1,-2.4609442E-3,-2.576992E-1,1.4617111E-1,4.346321E-2,9.16458E-1,-2.3713578E-1,5.3074545E-1,-1.7860076E0,-2.3218441E-1,3.874675E-2,6.8904586E-2,2.8919953E-1,-9.6066795E-2,2.1346281E-1,3.3616728E-1,-1.9199438E-1,2.144703E-1,-5.396845E-2],"split_indices":[25,14,21,2,2,0,3,0,4,12,13,0,0,0,4,19,12,0,0,27,23,13,0,18,14,0,0,0,0,0,0,0,0,0,0],"split_type":[0,0,0,0,0,0,0,0,0,0,0,0,0,0,0,0,0,0,0,0,0,0,0,0,0,0,0,0,0,0,0,0,0,0,0],"sum_hessian":[5.9105167E1,5.586402E1,3.2411473E0,8.263702E0,4.760032E1,1.0238523E0,2.2172952E0,1.4732795E0,6.790423E0,4.1259007E1,6.341314E0,1.0000964E0,1.2171986E0,1.2227718E0,5.5676513E0,6.1636314E0,3.5095375E1,1.045646E0,5.295668E0,2.2399528E0,3.3276985E0,2.1935213E0,3.97011E0,6.608368E0,2.8487005E1,1.1250451E0,1.1149077E0,2.1762486E0,